solver_type L2R_L2LOSS_SVC_DUAL
nr_class 5
label 1 4 3 2 5
nr_feature 21763
bias -1.000000000000000
w
-0.08384261058075115 -0.03023640663527589 -0.07436898230315583 -0.09723256579656207 0.001371352201165819 
0 0 0 0 0 
0 0 0 0 0 
0.01937451429940821 -0.02451775398409653 -0.02388691104931679 -0.006093841573479539 -0.02499816242094729 
0 0 0 0 0 
0 0 0 0 0 
0 0 0 0 0 
0 0 0 0 0 
0 0 0 0 0 
0 0 0 0 0 
-0.01849981949819471 -0.02055718151954434 -0.02066942446327235 -0.02124065967835099 0.02592949240013757 
0 0 0 0 0 
0.01336605725746603 -0.008235994681281304 -0.007662698586935125 -0.008778763716099815 -0.009074669627127236 
-0.06568687744148557 -0.08873447961320911 -0.07690564336066957 0.1097571718538436 -0.07311336175112951 
0 0 0 0 0 
0.03402618841276397 -0.01856466178060475 -0.02240021599941596 -0.01922958357423469 -0.01657825410840826 
-0.4029339742552552 -0.2701197036272131 -0.008720072766546379 -0.2567589966347722 -0.2288935720158469 
0 0 0 0 0 
0.02703108957503525 -0.02034194102952935 -0.01777043365369132 -0.02108767535245888 -0.01910279025558942 
0.004036290258013915 -0.002061529474793829 -0.002927988727895695 -0.002088966320065592 -0.001864215919737015 
-0.1077943348025890 -0.1654401772491865 -0.1556158102798838 0.08517834496742809 -0.01083741048743564 
0 0 0 0 0 
0 0 0 0 0 
-0.3243564667416833 -0.01311071603373243 -0.4517856336051263 -0.2596880757377657 -0.03956145453567251 
-0.09660034780190736 -0.04973945539249507 0.03867848887404563 -0.1302484270552736 -0.1074801775948225 
0 0 0 0 0 
0 0 0 0 0 
-0.01683575153300757 -0.02268520948985509 -0.003852742290289309 -0.02372805013092690 0.01861232578784594 
0 0 0 0 0 
0 0 0 0 0 
-0.1833284268872627 -0.2371590723658617 0.006773375560783921 -0.01446230887397283 -0.1574744897413460 
0 0 0 0 0 
-0.1479085502055652 0.01583256572059319 -0.1680658914564138 -0.1089025540394961 -0.1109637249328505 
0 0 0 0 0 
0 0 0 0 0 
0 0 0 0 0 
0 0 0 0 0 
-0.1821877211812173 -0.1432274461961624 -0.2014551973373437 -0.2126247723345950 0.1867847354431430 
0 0 0 0 0 
-0.3466157288234054 -0.1728194163686050 -0.3791882792641433 -0.3749077654413393 0.2088787878115085 
0 0 0 0 0 
0 0 0 0 0 
-0.06579121895719761 -0.07643984817739173 -0.07584767146263384 -0.03415419211103527 0.05819982733993182 
0 0 0 0 0 
0 0 0 0 0 
-0.02562863162800208 -0.03416968579401411 -0.03131978710094126 -0.03429857279064576 0.05111767257494849 
0 0 0 0 0 
-0.02456797327541354 -0.02644368891186130 -0.02619327666839142 -0.02968023567896790 0.03410875193074558 
-0.02014281376430625 -0.02130405342956072 -0.02096135250329238 -0.02123492624284995 0.02381014196998947 
0 0 0 0 0 
0 0 0 0 0 
-0.03561913306820651 0.03125004299803513 -0.03659324031201013 -0.05307237320149427 -0.03503814341110251 
0 0 0 0 0 
0 0 0 0 0 
-0.01722871609129251 -0.02373699186923941 -0.02290648134996426 0.03540781804614494 -0.02086690959966738 
0 0 0 0 0 
-0.01595618487251102 -0.01654324635133342 -0.01740236312153480 -0.01733097442030838 0.01986362864257691 
-0.07720941689690580 -0.09219268647989486 -0.06042477905066995 0.09033982235560546 -0.08127229728824584 
-0.2864649167659096 -0.3697955828492017 0.2605899265130267 -0.3524843138062513 -0.1411743441051191 
-0.03310268962719744 -0.03322266682711319 0.04184652209413890 -0.03602896743372059 -0.03748398600072817 
-0.2080215575125905 -0.1609121530224942 -0.1616306198070929 -0.2581343490723689 0.1220261010363862 
-0.03020229302445028 -0.03781912556968960 0.001228583062562101 -0.03793075807352914 0.01280386789921555 
0 0 0 0 0 
0 0 0 0 0 
0 0 0 0 0 
-0.05891658918642010 -0.06039410752567138 -0.02397189179336751 -0.06380100708075166 0.02919686716093516 
-0.05226369873540722 -0.05624185109258202 -0.03757644370047186 -0.05824609671851240 0.04963401999027624 
0 0 0 0 0 
-0.2433065621493005 -0.08357963818499504 -0.2458152098598918 -0.1665765387849099 0.02718087454553997 
0 0 0 0 0 
-0.2623701281204131 0.1175360506647181 -0.3160608243669695 -0.08065686870692260 -0.2235596441364010 
-0.003893351792766825 -0.005098029035732469 0.006511062144788131 -0.004916743362221072 -0.003582967068412143 
-0.02495069482843094 0.02993144684245161 -0.02681377335584060 -0.03091478765829314 -0.02082560905622497 
0 0 0 0 0 
-0.009746745478006582 -0.03403455734954881 -0.04043777890325556 -0.03507452506889380 0.01947497535430066 
0 0 0 0 0 
0 0 0 0 0 
0 0 0 0 0 
0 0 0 0 0 
-0.1280104750921678 -0.1464746436273797 -0.1307516946083919 -0.1467979609033042 0.1570441917938951 
0 0 0 0 0 
-0.007994651624416687 -0.03857882836854279 -0.03497196867104514 0.03023054069356666 -0.03864493243598632 
-0.06812933641322932 -0.09015657297311194 0.005802732902929744 0.03342454899693432 -0.07796488087236972 
-0.1374971085659103 -0.1691379416308701 -0.1574363162200239 -0.06835121043269190 0.1287273808977805 
0 0 0 0 0 
0 0 0 0 0 
-0.05322183005146490 -0.06578941226543350 -0.06896657044416848 -0.04858506895669200 0.06243711077130579 
-0.01755489219232636 -0.02948232494262867 0.008354758916120137 -0.02815414129292705 0.01990213127597899 
-0.02303494442534208 -0.02372431860076305 0.02992590868835853 -0.02397782502779651 -0.02649366751006959 
-0.06090969842383472 -0.06896637506064955 -0.06649279572427025 -0.06969192494117266 0.08534575303362124 
-0.08378979611569552 -0.1071008636994177 -0.08641543331022834 0.1269375237909931 -0.09615323620850273 
0 0 0 0 0 
-0.02604382354544244 -0.02785226485923820 -0.02964726425747681 0.03583223875012247 -0.02811038246554552 
-0.03170904460026666 -0.05551507589896847 -0.03853526859839798 -0.06419198194350807 0.09761303084087573 
0 0 0 0 0 
-0.04106632954358815 0.05414757459296628 -0.04148965008554979 -0.05001308577027309 -0.04089002129825190 
0 0 0 0 0 
0 0 0 0 0 
0 0 0 0 0 
0 0 0 0 0 
-0.01879497687171319 -0.01991000705162689 -0.01989947009757910 -0.02114805466262898 0.02407276945422259 
-0.1498499440007393 0.05750260105172013 -0.1661673979849380 -0.1327421777707533 -0.05074324093390184 
0 0 0 0 0 
0 0 0 0 0 
-0.2358221254730051 -0.1678850966647524 -0.1018329431652367 -0.2146045598301156 -0.05000405946555301 
0 0 0 0 0 
-0.06343605074735942 -0.07492467864168777 -0.06749064959884192 -0.06284565399244570 0.08053541486486716 
0 0 0 0 0 
0 0 0 0 0 
-0.2169859191224499 -0.2487371314377164 -0.2672212125083780 0.3408162938329701 -0.2667507664219534 
0 0 0 0 0 
0 0 0 0 0 
-0.007277225215356180 -0.008141028885154758 -0.008610509911151627 0.01129365830817484 -0.008564209803578969 
-0.07277001055730335 -0.08312866118477101 0.02111132868773600 -0.08361577211733698 -0.01502667866749723 
0 0 0 0 0 
-0.2970473728873918 -0.1832141931707914 -0.1975110822083339 -0.02618023796377747 -0.2114606568556310 
0 0 0 0 0 
0 0 0 0 0 
-0.2509203360896802 -0.3287883185353670 -0.2797349439619919 -0.1015604107743900 0.1322383549246562 
0 0 0 0 0 
-0.1480958477620543 -0.1680101500234832 -0.01617737355408918 -0.1455974512552977 0.02598251652694941 
-0.04350287455303317 -0.05485690875061988 0.01978708299443465 -0.05122815354832520 0.001910324587511307 
-0.05427990600084109 0.06247744919103941 -0.05308466074060641 -0.05574605406088653 -0.06079600031708792 
-0.05264938422890512 -0.05315413259474529 -0.05321731328223362 0.05819336327121959 -0.05658481925008000 
-0.009495002686115679 -0.01060411879126365 -0.01094094622478835 0.01436808528876055 -0.01041025013659713 
-0.05598336363280791 0.06191266814591042 -0.04942479246851002 -0.09447085857114372 -0.05213182445956984 
-0.02480590275100763 -0.02547973190186789 -0.02541424907912829 -0.02709591281793290 0.02940453960987738 
-0.1782491216485511 -0.003742666276218277 -0.1205019435425305 -0.2077806108804031 -0.01857353718850857 
0 0 0 0 0 
0 0 0 0 0 
0 0 0 0 0 
0 0 0 0 0 
0 0 0 0 0 
-0.01949467677230865 -0.02581959534284875 -0.004594627356963151 0.01670814893850342 -0.02251331456724308 
0 0 0 0 0 
0 0 0 0 0 
-0.008709164266026368 -0.01137020852588823 -0.01076027312845075 0.01544737649497729 -0.01020559491236500 
-0.003368164981227889 -0.003589018330288186 -0.003525266881477566 -0.003667534873636445 0.004132824911962388 
0 0 0 0 0 
-0.1114106790904796 0.03249963541216962 -0.01857811725213786 -0.1153435371263666 -0.1125347901287234 
0 0 0 0 0 
0 0 0 0 0 
0 0 0 0 0 
0 0 0 0 0 
0 0 0 0 0 
0 0 0 0 0 
-0.1837986190098683 -0.1730829299359860 -0.2069390423947441 -0.2186185364252659 0.2401969110138912 
0 0 0 0 0 
-0.02028975505607859 -0.02618463502091879 -0.02475344435354283 -0.02440550605772815 0.03554032991186536 
-0.2040306782016668 -0.1697052286857099 -0.1723789467892780 -0.1601777848463218 0.09765157099147218 
0.01442218879352974 -0.008367351444464394 -0.01068832782600675 -0.008625031004830296 -0.007770583635987182 
-0.06616833751131147 -0.07549764052663728 -0.07252075875758301 -0.07740065135752844 0.09501894795579457 
-0.02289469779361547 -0.02880239358646695 0.01011462042296436 0.0003826884425916186 -0.02659994443092291 
-0.02463774693545194 -0.03117633734951601 -0.01517074137666091 -0.03028920325507399 0.03030943833610083 
-0.06146458305626996 -0.05635890527768123 0.01374819196805714 -0.08749323874280582 -0.04400955227631570 
-0.02159882581385131 -0.02346368575797501 -0.02446673666099026 -0.02454212761630348 0.03061696937799348 
-0.3179595606137915 -0.2250909691491692 -0.08532288138330255 -0.2977700040429628 -0.04069339512063648 
-0.07056338227001971 -0.07698671615471679 -0.09864620194693469 0.1179996266422531 -0.08299137964915031 
0 0 0 0 0 
0 0 0 0 0 
0 0 0 0 0 
-0.04487998867169825 -0.05939802093234710 -0.05200765538457951 -0.03390504441249310 0.04448587540272483 
0 0 0 0 0 
0 0 0 0 0 
0 0 0 0 0 
0 0 0 0 0 
0 0 0 0 0 
0 0 0 0 0 
-0.01321844831049148 -0.02456076723213058 -0.02609877468377411 0.04554542422890936 -0.01872445430171327 
-0.06958572852184496 -0.07106345155718784 -0.09496721649713162 -0.09659137978323953 0.1233923574525056 
-0.2058531619824408 -0.2863618570546475 -0.09332589617070060 0.07725179337950444 -0.2226634820268791 
0 0 0 0 0 
-0.2879452447786495 -0.1417430569861835 -0.3039977955916287 -0.04220712829438797 -0.08216483719031757 
-0.2692605713833681 -0.1733263638864504 -0.1180052061285254 -0.07480245662789933 -0.1310649980240891 
-0.1881337051292611 -0.1891134215143588 -0.1613541662663071 0.1037900584611829 -0.1599027431356818 
0 0 0 0 0 
-0.1387756363609137 -0.1942257594595343 -0.09716086635729740 0.03865550344257272 -0.02791686370409255 
-0.003204333694260382 -0.03311656248252288 -0.03071970833049832 0.02021955960647134 -0.03427151735794940 
0 0 0 0 0 
-0.07146458384567520 -0.08639795001380542 -0.04286356643170559 0.03757424976548079 -0.04590611643018056 
0 0 0 0 0 
-0.02465103138296365 -0.02755465347981203 -0.02627216548120473 -0.03013119907335251 0.03552352450336713 
-0.02450053881411511 -0.03029249075944058 -0.02980356228608698 0.002326505889095297 0.01134597396759203 
-0.06773998401940948 -0.03195017278921904 -0.08884371080260504 0.03222690033784850 -0.05668663229174421 
-0.2740631945059935 -0.2450667235233457 -0.1786075466715818 -0.1789422438496221 0.05688898315576572 
0 0 0 0 0 
-0.07387123219725553 -0.08735326273781666 -0.07999528046524719 -0.08441540768412634 0.1085431799218382 
0 0 0 0 0 
0 0 0 0 0 
0 0 0 0 0 
0 0 0 0 0 
0 0 0 0 0 
-0.07750766752550468 0.08261403965554419 -0.09911800614017441 -0.1082718835213518 -0.02107117827739966 
0 0 0 0 0 
0 0 0 0 0 
-0.01198998342714104 -0.01437800441826694 0.01920947658180787 -0.01510184327818814 -0.01278685431648573 
-0.1178570320139639 -0.04804476111951056 -0.01209151538519839 0.01921344884090797 -0.1515592918431274 
0 0 0 0 0 
0 0 0 0 0 
-0.2312874840328560 0.2099943014556030 -0.1680729086085671 -0.2307314282114311 -0.3111108652307346 
0 0 0 0 0 
0.01570140153822038 -0.01033358124151199 -0.01054056883962388 -0.01134790029145348 -0.01082032646206045 
-0.2380920688399667 0.04224796762048204 -0.2352918441504796 -0.2615208269526964 -0.03795598615724791 
0 0 0 0 0 
-0.01731200555245032 0.03674315503413472 -0.02143180877361371 -0.02546025037454772 -0.02202467884832743 
0 0 0 0 0 
-0.09355048283073370 -0.1100688563899487 -0.07058855201897932 0.01759894933779796 -0.01792717830915419 
0 0 0 0 0 
0 0 0 0 0 
-0.1756104009051345 0.08015709673105441 -0.09206076539409920 -0.1670121769298683 -0.1622439234599066 
-0.06787659628387223 -0.08434177093843874 -0.05673201427604741 0.08985318966942883 -0.08084757019153231 
-0.1600636321821310 -0.1776671227385454 -0.02967551740400481 -0.06200398461630306 -0.02898140548213947 
0 0 0 0 0 
-0.1996474139805369 -0.1966359573105813 -0.07833659560422010 -0.09794381040581375 -0.1297467906785622 
0 0 0 0 0 
0 0 0 0 0 
0 0 0 0 0 
0 0 0 0 0 
-0.03292324752348951 -0.04227319851282149 -0.04580157214175539 -0.02074269630809621 0.02213768768087236 
-0.2622926218969989 -0.2835612135484858 -0.1698634600885490 -0.1188551769658326 0.06266646112323172 
-0.4067082459249898 -0.3881937077497573 -0.3159040422537388 -0.0004342388327720584 -0.09796079494183105 
0 0 0 0 0 
0 0 0 0 0 
-0.1553184719926122 -0.1630124594633620 -0.02653922902093059 0.001588320665940048 -0.1199508556391503 
-0.08096413232252325 -0.09354908496573815 -0.09041460644382653 -0.09327774579084394 0.1175336598279635 
0.001197250990017699 -0.0008959817691674743 -0.0009443392249769188 -0.0008721022762179664 -0.0007859346735433539 
0 0 0 0 0 
0 0 0 0 0 
-0.008391949447488485 -0.008628435169515504 0.01127684538998777 -0.009451028745319293 -0.009497931876648621 
0 0 0 0 0 
0 0 0 0 0 
-0.4098915272948737 -0.3931333152318118 -0.4396722051911056 -0.2748599565585594 0.1744166698850686 
0 0 0 0 0 
-0.04010944927431775 0.001634964187882722 -0.03467105031031847 -0.01118078421514236 -0.03548950366678785 
0 0 0 0 0 
-0.08259322472748541 -0.03891637088170154 0.08915106519418486 -0.1054875165735637 -0.1031552387749238 
0 0 0 0 0 
-0.1572480319322922 -0.09565006859733734 -0.1357109046875953 -0.0003802225388921623 -0.04804785780250039 
0 0 0 0 0 
-0.03742010913896737 -0.04330381368164026 -0.04495420593567787 -0.04650419304225039 0.06230497068525835 
0 0 0 0 0 
0 0 0 0 0 
-0.04134034188445043 -0.05030876370644976 -0.04754902703845246 -0.03082659751975656 0.04803368542325839 
-0.009220619160351494 -0.01120189836863513 -0.01112635049761244 0.01513933640389988 -0.01045310997901115 
-0.01648840804843985 -0.02092425392943471 -0.01759093196937867 -0.02053760939128123 0.02660839498936100 
0 0 0 0 0 
0 0 0 0 0 
-0.03464598567902583 -0.03714597494090744 -0.03826928211191716 0.04624117258461674 -0.03980137862118788 
-0.3200706287924134 -0.3642837967865412 -0.3379131849042921 -0.3585373977501574 0.4301734122260406 
-0.02744877660245854 -0.05168857165195512 -0.01317751514092156 -0.05269429643733822 0.009181102589439247 
-0.03623251461657252 -0.04795291123518140 -0.03176925281359935 0.05636108926522864 -0.04326816355090447 
0 0 0 0 0 
0 0 0 0 0 
0 0 0 0 0 
0 0 0 0 0 
0 0 0 0 0 
-0.1343745873942281 -0.02604202339522625 -0.1559985254952882 0.1069671713000869 -0.1861204761273853 
0 0 0 0 0 
-0.1008568368990145 -0.1193503751127802 -0.1106876516739549 0.0001271495891744805 0.02138842514184113 
0 0 0 0 0 
0 0 0 0 0 
0 0 0 0 0 
0 0 0 0 0 
0 0 0 0 0 
-0.08373928740531929 -0.09832017662188536 -0.07291172073952204 -0.04111360293685171 0.04975005033086130 
-0.009310447296156502 -0.01243841651798015 -0.01059519563748915 0.01693704302949058 -0.01174731923950386 
-0.1617376328369965 -0.1047776642070613 -0.09227491221351537 -0.009603051273827979 -0.1542548672553737 
-0.003948384090999936 -0.004485563896636640 0.006216520533970223 -0.004797189010306527 -0.004473477114369527 
0 0 0 0 0 
0 0 0 0 0 
0 0 0 0 0 
-0.2247081215126284 -0.2441674508272801 -0.2798224433144219 0.06929226830089963 -0.06993963549102658 
-0.1063850200803247 -0.1263742111731439 -0.1152041162390913 0.04308522546528550 -0.01607249894428845 
0 0 0 0 0 
-0.1143116715430036 -0.08551746596410045 -0.1161053967889315 -0.01295536099306124 -0.002104996554165131 
0 0 0 0 0 
0 0 0 0 0 
-0.1015819548594074 -0.1020877182386508 0.07145215467810274 -0.1031524413827064 -0.06759295583259246 
0 0 0 0 0 
0 0 0 0 0 
-0.2504549160267825 0.1402969361295144 -0.1412144549179486 -0.2431044023276272 -0.2914888216320155 
-0.2218578602773524 -0.2665783098365672 0.04353251972735342 -0.1986904460493952 -0.1230424978133214 
-0.1926620831629032 -0.2470861920062275 -0.1850466176609598 0.02332643487466397 0.005394074585994652 
-0.03652749110328319 -0.05999287106598857 0.07233059477889293 -0.04268751977566819 -0.03837720492121806 
-0.06650419262288759 -0.1357099173298110 -0.1350713163821865 0.06871147179564617 -0.05288482918139492 
-0.04460821926699593 -0.02183497866003385 -0.08018711240889410 0.05785103190144842 -0.04321167458780375 
-0.1284679445147840 -0.1044080483606758 -0.06952407411409730 0.01585424249492836 -0.1001379580646306 
-0.2762407188857461 -0.1586985779323712 -0.1723619032600404 0.01432330459024133 -0.3515024972906574 
-0.09145030544502722 -0.1136531209601530 -0.1326808369985557 0.1305329975257761 -0.06278683110245735 
-0.2040828317377704 -0.2175736485249603 0.04309330876188125 -0.2441530595676831 -0.03186340351750450 
0 0 0 0 0 
-0.04262777654008551 0.008526402283810870 -0.02955081084514143 -0.01802144117962761 -0.05900559456164214 
0 0 0 0 0 
-0.01656247290616488 -0.01638525532735170 -0.01717100858488222 -0.01685298651095711 0.01761399446171435 
-0.04505227630913370 -0.05191768352412929 -0.04888070658862181 0.009199726845916812 0.005485827768253466 
-0.02349875814971009 -0.02747333311985402 -0.02985996383463952 -0.03097285112180239 0.04286017778481326 
-0.2972058690954926 -0.1926829567130908 -0.2231249084985376 -0.2339954099288293 0.08074361182258408 
0 0 0 0 0 
-0.07995867866315123 -0.05339177165049573 -0.09524194745169383 0.08396999697479870 -0.09269671205093144 
-0.2068378278964133 -0.1634075035720642 -0.1285188200219624 0.02209673241734792 -0.1338178875510684 
-0.2033569809270252 0.07498981473474804 -0.09100990582346204 -0.1604775998655894 -0.2185236411975606 
-0.2266299534094707 0.04353849116497043 -0.2282388823035657 -0.1459358220497743 -0.1154549389206875 
0 0 0 0 0 
0 0 0 0 0 
0 0 0 0 0 
-0.4348918088961564 -0.3891641306723995 -0.2137011981113731 -0.05043053827566766 -0.3792231203287332 
0 0 0 0 0 
0 0 0 0 0 
-0.07806440150423793 0.04393698543252596 -0.07878760452639401 -0.07977281713889950 -0.04086606914534793 
-0.1559680928136329 -0.1471967387860501 -0.1933091965108772 0.1523551985560583 -0.1512322534200900 
-0.4119352476177835 0.07213774196362287 -0.4644046601312289 -0.1003912756438497 -0.3110560651229247 
0 0 0 0 0 
0 0 0 0 0 
0 0 0 0 0 
0 0 0 0 0 
0 0 0 0 0 
0 0 0 0 0 
0 0 0 0 0 
0 0 0 0 0 
0 0 0 0 0 
0 0 0 0 0 
0 0 0 0 0 
0 0 0 0 0 
-0.1657665530057014 -0.1559735684269153 -0.003859229090431385 -0.1072147311389388 -0.1687491003805267 
-0.08214612490157668 -0.09517996415572184 -0.01350117661546443 -0.05326375498798217 -0.0004431331335115611 
0 0 0 0 0 
0 0 0 0 0 
-0.03514908229216985 -0.03868915686784838 -0.04233767445681447 0.05134472003480134 -0.03778656004769225 
-0.1512715027606812 -0.02653004603578451 -0.2190818590390907 0.07006720114460120 -0.1933939928914079 
-0.03419054002147331 -0.03622834925423069 -0.03579760732205409 -0.03457214003649510 0.03873308062467526 
-0.1289024547548149 0.2759463615692632 -0.1868469001469744 -0.1904859325844727 -0.1481851651107437 
0 0 0 0 0 
-0.1838366619181884 -0.03384886815031860 -0.06180772868045117 -0.2299474076489256 -0.08512246845697889 
0 0 0 0 0 
-0.1536813571278360 -0.1823574142893771 -0.1748860249652346 -0.05092453541703423 0.1065518974254089 
-0.05211650319159750 -0.06552414876202774 -0.05685860410286706 0.08172944795144006 -0.06286693468905569 
0 0 0 0 0 
-0.1283831379520345 -0.1078158278696221 -0.03442449039310453 -0.09033250047547245 -0.02824497669050762 
-0.01099472444223964 -0.01215325237037759 -0.01212719005676317 -0.01137482296883636 0.01419305831775429 
0 0 0 0 0 
0 0 0 0 0 
0 0 0 0 0 
0 0 0 0 0 
0 0 0 0 0 
-0.1502362902668501 -0.1614765773867665 -0.1538245921107215 -0.1620806722679496 0.1812922097803019 
0 0 0 0 0 
-0.1316927189826108 0.01788957450623453 -0.06146385197004881 -0.1197536776984593 -0.09499131084795095 
0.009272121253737643 -0.004273967469056623 -0.006603055455259839 -0.004388963656657170 -0.003904323093106662 
0 0 0 0 0 
-0.09790975166319832 -0.09996335803549080 -0.1063493945504333 -0.1130395857018898 0.1223551259760143 
-0.02986743294943769 0.04228147923291648 -0.02960459878960115 -0.03597551620067608 -0.03477290055350586 
0 0 0 0 0 
0 0 0 0 0 
0 0 0 0 0 
0 0 0 0 0 
0 0 0 0 0 
-0.1512283817054670 -0.1725835663248547 -0.04162380841109506 0.01558751948470012 -0.1462216494685348 
-0.1425581415848016 -0.006993571540236300 -0.1208076218074378 -0.1745131074402355 0.009749703279270449 
-0.01881998092733194 -0.01961537507200743 -0.01967806654000100 -0.02068696845041029 0.02273915677420981 
0 0 0 0 0 
0 0 0 0 0 
-0.1056056123415725 -0.06825601463667066 -0.07159668254478802 0.05454224671863547 -0.1124690117861753 
-0.04990118037789879 -0.06752046784547847 -0.06194394453648828 0.02126199545187336 -0.006998152915872640 
0 0 0 0 0 
-0.2854520350402465 0.08013478357450744 -0.2069557189613525 -0.2304405343889788 -0.2168630920015872 
-0.2473544732201417 -0.2765312820576755 -0.2680530904642772 -0.09447950411579169 0.1536578073411924 
-0.01817977145025525 -0.02012162988344751 -0.01946449442415243 -0.02331910795833226 0.02754170689178166 
-0.2659618869111462 -0.3103393249749589 -0.2661482314437232 0.3615705526792290 -0.3047597165730794 
-0.7097692714719050 -0.7879637395802331 -0.7828054452230272 0.9702691934981175 -0.8056156415454272 
-0.006836103098853851 -0.008663917677951433 0.01346753447466798 -0.008895056546064062 -0.007810889567895266 
0 0 0 0 0 
-0.2255714848545297 -0.06625194964604877 -0.2057902909975265 -0.09392475377454816 -0.1287806132421413 
-0.007623944875833666 -0.009662409976897088 0.01501963018455249 -0.009920186953585562 -0.008711072761152760 
0 0 0 0 0 
-0.1661480333453119 -0.1863290978991625 0.02185779660277135 -0.1819480810015210 0.01607705015622303 
-0.3794724809343698 -0.3345799455786058 -0.3432998983441100 -0.1666677777215254 -0.04747692431414655 
0 0 0 0 0 
0 0 0 0 0 
-0.03343445103071979 -0.01434383759708367 -0.04757012272305019 -0.05452293010460264 0.03482442195097393 
-0.01915218649907330 0.02801028743685056 -0.01919386781402496 -0.02324130718437409 -0.02441351034317345 
-1.044200199000430 -1.322875601260387 -1.388860774386663 1.896895634653509 -1.182177298540280 
0 0 0 0 0 
0 0 0 0 0 
0 0 0 0 0 
-0.01595618487251102 -0.01654324635133342 -0.01740236312153480 -0.01733097442030838 0.01986362864257691 
0 0 0 0 0 
0 0 0 0 0 
0 0 0 0 0 
0 0 0 0 0 
-0.1474722999671040 -0.04775814880464849 -0.07638684743120275 0.001614472595002918 -0.1616995224014887 
-0.07967351944807860 0.01077564046266019 -0.004141019214137099 -0.07390195897100656 -0.08071009217306582 
-0.03202397751343946 -0.02624874084867922 -0.02695443304210465 0.03548336878066737 -0.03195120549468287 
-0.01549905473017934 -0.01580201201465625 -0.01389145365238633 0.01779394455917937 -0.01900953593380956 
0 0 0 0 0 
0 0 0 0 0 
-0.1592010863080514 -0.1826419705500196 -0.08218776314184112 -0.04031849774115542 -0.005693513873589237 
0 0 0 0 0 
-0.02813591947068708 0.03955581196745350 -0.03424838902765680 -0.02018483279448054 -0.03765815380838870 
0 0 0 0 0 
-0.1498758572068219 -0.1636226944918220 -0.02488133996181353 -0.02939763705040797 -0.1403481253286860 
-0.1253612054640564 -0.1624680435208673 -0.1280913847832825 0.1848983447707426 -0.1329908788736264 
0 0 0 0 0 
-0.4814164148241706 -0.6473749984354524 -0.6840883226153878 1.036940082956488 -0.5961383938105982 
-0.1362894528679765 -0.07813684721556285 -0.1674956989622007 0.1132515030049136 -0.1547194263408654 
-0.04276948394706795 -0.05857383062327703 -0.04535005647081979 0.07855891060137220 -0.05383853804180055 
0 0 0 0 0 
0 0 0 0 0 
0 0 0 0 0 
-0.01980505351124621 -0.001706001727880673 -0.03569778712272281 -0.03338077534777031 0.01342953726047971 
0 0 0 0 0 
-0.3366126902362764 -0.3704565017554455 -0.3794780645764383 0.4941149315328333 -0.4045224994638729 
-0.05954180753384330 -0.06202015464121610 -0.06500421436445936 -0.02793157274087758 0.03878892230975351 
0 0 0 0 0 
0 0 0 0 0 
0 0 0 0 0 
0 0 0 0 0 
0 0 0 0 0 
0 0 0 0 0 
-0.1102505234863786 -0.1216640749792807 -0.05675698049476266 -0.05413268506404553 0.01578775843252790 
-0.2796394026540347 -0.2831660166780746 -0.3103300445245994 0.2964863983276543 -0.2576827789196309 
-0.1140470819338488 -0.1179264297046033 -0.002702424714973389 -0.08844508470834637 -0.01086917173187167 
0 0 0 0 0 
0 0 0 0 0 
0 0 0 0 0 
-0.05546922460910311 -0.05848624189849222 -0.05588251982569761 0.06275630413574777 -0.05754986362693547 
-0.008619338144438818 -0.01686785806739350 -0.01901210937761512 0.03293058227872317 -0.01245879999890092 
0 0 0 0 0 
-0.03024476582176630 -0.03634205843801640 0.05039100211904189 -0.03742676247310937 -0.03359010566618584 
0 0 0 0 0 
0 0 0 0 0 
-0.4641007480469011 0.1124063654375575 -0.4970897266519355 -0.3151852559596039 -0.2162883308703936 
0 0 0 0 0 
0 0 0 0 0 
0 0 0 0 0 
0 0 0 0 0 
-0.07214546993914661 -0.09402087204285485 -0.1130736411507425 0.1425708736174466 -0.07598445804537535 
0 0 0 0 0 
-0.08268553224266642 -0.09421755563467530 -0.06446612390360859 0.09356263560444424 -0.09065111206728220 
0 0 0 0 0 
-0.02248367365350711 0.05650083347553797 -0.03243534552384753 -0.03647846687808196 -0.03000389313541260 
-0.004470552973175642 -0.005308102771311033 0.006556580426941024 -0.004993896611132261 -0.004825608267431185 
-0.01242628550588492 -0.01489678851258739 -0.01385498549019203 0.02619406623441735 -0.02132296281391610 
-0.1722067602170677 -0.2030135495842761 -0.1983042620383742 0.2288043162061387 -0.1538045144632964 
0 0 0 0 0 
-0.008930483474905096 -0.03334159580057991 -0.03727209132956862 0.02350460336762935 -0.03297627388008032 
-0.4093481098429400 0.1048791626816491 -0.1524689644340325 -0.3797736368032538 -0.3638668543385795 
0 0 0 0 0 
-0.04073068043533908 -0.03562972497786543 -0.004338400499587244 0.01059531433562324 -0.04823753104835681 
-0.01070258120126819 -0.03180924161491127 -0.03028102890186208 -0.03446590435393523 0.02562193949478529 
-0.2988768943801848 0.1548036660916636 -0.2544788971795560 -0.1580020376073542 -0.3154712095008880 
-0.09334447779474832 -0.08975235310814514 -0.09116772926602056 0.08442506452902165 -0.09053967447184129 
-0.06095978327888399 0.03925357661883582 -0.04547489401143527 -0.02835695348774268 -0.08107100965577660 
-0.01798785692135180 -0.02143300402494157 0.02786435895554800 -0.01951219038877657 -0.02177437863969149 
0 0 0 0 0 
0 0 0 0 0 
0 0 0 0 0 
0 0 0 0 0 
0 0 0 0 0 
-0.07598023199495302 0.03505146775636234 -0.07592912400423614 -0.08468012207241060 -0.02178540236624182 
0 0 0 0 0 
0 0 0 0 0 
0 0 0 0 0 
0 0 0 0 0 
0 0 0 0 0 
0 0 0 0 0 
0 0 0 0 0 
0 0 0 0 0 
0 0 0 0 0 
0 0 0 0 0 
-0.008276470913849277 -0.01109844029839353 0.01557941105735650 -0.01051240159339705 -0.009184569866572938 
-0.3209783127059318 -0.3493904188134465 -0.1951400562286109 -0.3560160614922032 0.2723691962313493 
0 0 0 0 0 
0 0 0 0 0 
-0.004470552973175642 -0.005308102771311033 0.006556580426941024 -0.004993896611132261 -0.004825608267431185 
-0.01096108795108009 -0.01231730039635496 0.01638854662657422 -0.01266387096986584 -0.01252697784402218 
-0.008276470913849277 -0.01109844029839353 0.01557941105735650 -0.01051240159339705 -0.009184569866572938 
0 0 0 0 0 
0 0 0 0 0 
-0.03798802545068800 -0.05197748188721573 0.03884031517575415 -0.02767574085418405 -0.04841451474192279 
-0.02982260238585541 -0.04485921275789209 0.05133316216121365 -0.04070865482257949 -0.04249130025688682 
0 0 0 0 0 
-0.2891288505533753 -0.3156850949638791 -0.1241672546276130 -0.3392945970739722 0.1981779824222319 
0 0 0 0 0 
-0.1178467118790747 -0.1654158956221867 0.1955455660579669 -0.1160521873363171 -0.1323405581477893 
0 0 0 0 0 
0 0 0 0 0 
-0.007738858337946257 -0.01209635235815355 -0.01152560801290980 0.01474058567537318 -0.01084255164005294 
0 0 0 0 0 
0 0 0 0 0 
-0.1081959156244584 -0.1242609947172982 -0.05551986330992825 -0.04250512509830681 0.002981021704095602 
0 0 0 0 0 
0 0 0 0 0 
-0.05117044185750207 -0.05399635724495395 0.06184878344070446 -0.05320817931855054 -0.05569485005752307 
0 0 0 0 0 
-0.02993404253243995 -0.03524241089731023 0.04044834638750092 -0.03407587043598787 -0.02892228679766043 
0.0007433608661425171 -0.0005563058953631706 -0.0005863305439411816 -0.0005414793629902654 -0.0004879787818325272 
0.004636060626868822 -0.002136983734528311 -0.003301527727629920 -0.002194481828328585 -0.001952161546553331 
0 0 0 0 0 
0 0 0 0 0 
-0.006896702646169591 -0.01021824587021614 0.01523875305889082 -0.009504913665973141 -0.008255295995327264 
-0.008779566068986640 -0.03627115954578120 -0.03614614410935258 -0.04033934210535838 0.02108689757977669 
-0.1007374434621705 -0.1382397067424569 0.1831959215834114 -0.1345046196316390 -0.1169676153160904 
0 0 0 0 0 
-0.02191247235408450 -0.03078848418177709 0.04192227515050201 -0.03204657429586975 -0.01841483633795969 
0 0 0 0 0 
0 0 0 0 0 
0 0 0 0 0 
0 0 0 0 0 
-0.09697203596396065 -0.1048813157501818 0.1211126495597867 -0.1045431186598178 -0.1011050592466342 
0 0 0 0 0 
0 0 0 0 0 
-0.04079614766091851 0.01753491316854150 0.01482682199585925 -0.05761523873738626 -0.05236644445349509 
0 0 0 0 0 
0 0 0 0 0 
-0.03322136258897077 -0.04621244501554770 0.07111901074388992 -0.04858294554938972 -0.03847747813192236 
-0.5111846719775021 -0.6009477594180495 0.5601502480596366 -0.6638465786400749 -0.3799383995559418 
0 0 0 0 0 
0 0 0 0 0 
0 0 0 0 0 
-0.003625214001444815 -0.004118426340418252 0.005707706433978340 -0.004404545344861868 -0.004107328845519762 
-0.2503716785367599 -0.2202580968750967 -0.2935895420287867 -0.1663072869784366 0.07011352848666344 
0 0 0 0 0 
-0.007813338252355001 -0.03433076578581096 0.05952523063459118 -0.02189289381508975 -0.01185625568211654 
0 0 0 0 0 
-0.01393071835279944 -0.01433932695258615 0.01623523876365185 -0.01335934601528963 -0.01623551743429310 
-0.04397049446844267 -0.04871864650509093 -0.04597821790721691 -0.05151127583594012 0.05993529569286867 
0 0 0 0 0 
-0.009230693165343208 -0.01237801691985943 0.01737561391372418 -0.01172441183562170 -0.01024348990970621 
0 0 0 0 0 
0 0 0 0 0 
-0.02756554613162238 0.09209606377570806 -0.08836227460701584 -0.06869723294073345 -0.06155797848784517 
0 0 0 0 0 
0 0 0 0 0 
-0.2671982645483568 -0.2976738303684127 -0.01507596041937391 -0.1465128769248115 -0.08278443536147116 
0 0 0 0 0 
-0.04637130265890792 -0.04886239650859988 0.05789468797212594 -0.04984854510197102 -0.04900050074736519 
0 0 0 0 0 
0 0 0 0 0 
0 0 0 0 0 
-0.06061525835342838 -0.07069011682901893 -0.07251264327863202 0.06613518066195027 -0.04175826816856165 
-0.02486572914528750 -0.0006556507468900976 0.008668936719762457 -0.06334038546276483 -0.05173111494236298 
-0.07156885153272272 -0.08757879001966754 0.1068489816990590 -0.07922674589726485 -0.07919615256203270 
-0.6060335067896894 -0.5759755503492983 -0.3463837540316798 -0.002606714932174954 -0.3276340652822415 
-0.04736544840019154 -0.07560584183447294 0.07247619240824997 -0.03890034951757995 -0.06026354496064738 
0.0008707279927401445 -0.0006516231048490724 -0.0006867921636195773 -0.0006342562008857937 -0.0005715888534860755 
-0.3631774549253534 -0.1413371935983898 -0.4073126013326783 -0.03823339685768636 -0.1515041869274754 
-0.06527233241734087 -0.06361860380165855 0.08404694660474145 -0.07398340570798768 -0.07394655900158265 
-0.03764617747344574 0.03690224049794275 -0.02274235402619692 -0.04529899699491847 -0.04037308462281667 
0 0 0 0 0 
0 0 0 0 0 
0 0 0 0 0 
0 0 0 0 0 
-0.06911060277302611 -0.08086981411711237 0.09787227256393403 -0.07609696615606056 -0.07491263870033373 
0 0 0 0 0 
-0.01412625741547246 -0.02182776928101793 0.03800853882422994 -0.02446566170578696 -0.01701149765155613 
-0.1281733579053493 -0.1374101633951746 0.1639679468513670 -0.1423220909450149 -0.1346729258461809 
0 0 0 0 0 
-0.05440402239770126 0.07776586590519835 -0.04592337677505690 -0.06886475439581362 -0.06957947092505463 
-0.03312090535664880 -0.05063762434029093 0.06418780813042746 -0.04700174074360099 -0.04760232811090714 
-0.1644304439789110 -0.2295542667803892 0.2664640001626938 -0.2156398200190944 -0.1971656511825327 
0 0 0 0 0 
0 0 0 0 0 
-0.03164392805163428 -0.03656835414286614 0.04853029743257680 -0.03772139378785473 -0.03498861528713577 
-0.1164461052352060 -0.05856718817759633 0.02414800343980694 -0.07293701897452132 -0.1211615543185348 
-0.03071856664789146 -0.03388291993371571 0.04939442674599057 -0.03320271579961230 -0.04252584983127207 
-0.05639560830608371 -0.06607228287652983 -0.005629024855294654 -0.07074307410708282 0.02910919130071082 
0 0 0 0 0 
0 0 0 0 0 
-0.2065643178931438 -0.2008833193216137 -0.1926051878752291 0.1152928223572844 -0.1370837302819286 
-0.01046436341091051 -0.01974836837651800 -0.02045076868958525 0.02248170128487758 -0.01901688578789738 
-0.1649270348851768 -0.1838966676558884 -0.05580257391752604 -0.1900779167415297 0.1072457813880632 
0 0 0 0 0 
0 0 0 0 0 
0 0 0 0 0 
0 0 0 0 0 
0 0 0 0 0 
0 0 0 0 0 
-0.08986512353444114 -0.1019899399744658 0.1315709725569422 -0.1035157699261357 -0.09774208066843228 
-0.02987681146560703 -0.02921565592172529 -0.03244163368972999 0.03746824432627893 -0.03456981851109944 
0 0 0 0 0 
0 0 0 0 0 
-0.1067857904754242 -0.1803068444358665 -0.1899887963116891 0.2331963171856985 -0.1821717431016015 
0 0 0 0 0 
-0.1164846446771159 -0.1455523366634489 -0.05485121271614506 0.07332304531188410 -0.1590625411123685 
0 0 0 0 0 
0 0 0 0 0 
-0.1226339433444725 -0.1133802904197675 -0.02235490672351311 -0.08507842510372714 -0.03133806655613870 
-0.2165185256999075 -0.2377972987515911 0.2740574447051395 -0.2248916887038998 -0.2329638528490194 
0 0 0 0 0 
-0.01592723207210223 -0.01708300582919584 0.02147082271244197 -0.01715225130434370 -0.01710249650521812 
-0.01657050645644178 -0.03034566366398088 -0.07759925654996344 -0.04722016739083935 -0.01609563979441706 
0 0 0 0 0 
-0.03423011335190290 -0.04926793008993448 -0.03949407476285265 0.06939678864996968 -0.04374843202212158 
0 0 0 0 0 
0 0 0 0 0 
0 0 0 0 0 
0 0 0 0 0 
-0.3262017652906940 -0.3908511898824275 0.4984216689021305 -0.3809767657282136 -0.3651675761718946 
0 0 0 0 0 
-0.2266091903681106 -0.1066921632261638 -0.1510236861295224 -0.1135703436170823 -0.1088410537759472 
0 0 0 0 0 
0 0 0 0 0 
0 0 0 0 0 
0 0 0 0 0 
-0.06615573541288322 -0.07513718072180134 0.06973103695620066 -0.05150927587211962 -0.07095393772917213 
0 0 0 0 0 
-0.03205707718221718 -0.03655110243386394 0.008771922542471236 -0.005200020677726252 -0.02857939893008028 
0 0 0 0 0 
0 0 0 0 0 
-0.1250729450609804 -0.1684627714702783 0.06500299039555490 -0.1583753645601465 -0.05240055885685924 
0 0 0 0 0 
0 0 0 0 0 
0 0 0 0 0 
0 0 0 0 0 
0 0 0 0 0 
0 0 0 0 0 
-0.02000805668713339 -0.02306368623821583 -0.009852312287108318 -0.02620000371285818 0.02056468406226353 
-0.03652749110328319 -0.05999287106598857 0.07233059477889293 -0.04268751977566819 -0.03837720492121806 
0 0 0 0 0 
0 0 0 0 0 
-0.07414793656945004 -0.07715962095932419 0.08805050341635824 -0.08001606627719968 -0.07690641309004806 
0 0 0 0 0 
-0.1104771032755580 -0.1375262625309771 0.03057753756348732 0.005091509409350600 -0.1120672795501339 
0 0 0 0 0 
0 0 0 0 0 
0 0 0 0 0 
-0.1125341176482426 -0.1191910342716402 0.1399490929971405 -0.1272423256498473 -0.1115216225037792 
0 0 0 0 0 
-0.01564263551610972 -0.02500205901115654 0.02598779395374323 -0.02558027309543563 -0.02372376471930495 
-0.1558858656817619 -0.05939451616540405 0.1346962355084029 -0.1985897458487510 -0.1679844266943329 
0 0 0 0 0 
0 0 0 0 0 
0 0 0 0 0 
-0.05936937774390961 -0.06236229022109641 0.08216333785487963 -0.06820279967252847 -0.06639545787290577 
-0.1115777820928000 -0.1244317854750709 -0.07579480796193334 0.03213985594437757 -0.05133196477439501 
-0.1648362007787370 -0.1180904173525508 0.03120200457738272 -0.2042608865781107 -0.1009305398501843 
0 0 0 0 0 
-0.06594402542097300 -0.08287948522071990 0.09233658562992407 -0.07028200407553550 -0.06514600000605636 
0 0 0 0 0 
-0.05455689004173939 -0.06310803607100238 0.08134409839824816 -0.06503176748177213 -0.05655861942663002 
0 0 0 0 0 
0 0 0 0 0 
-0.2317051500726228 -0.2717973970381326 0.3270672768371677 -0.2388004561202214 -0.2653725545789907 
0 0 0 0 0 
-0.2037028028019342 -0.2434002218449303 0.3079541983793306 -0.2258083547893918 -0.2334749550388914 
0 0 0 0 0 
0 0 0 0 0 
-0.07634162611610369 -0.07800165714536049 0.1041452602774415 -0.08825808009493846 -0.08543737189843323 
-0.4826694434479266 -0.6486196657312135 0.4874078186864290 -0.4098884399662719 -0.3753969947481120 
0 0 0 0 0 
0 0 0 0 0 
0 0 0 0 0 
0 0 0 0 0 
0 0 0 0 0 
0 0 0 0 0 
0 0 0 0 0 
0 0 0 0 0 
0 0 0 0 0 
0.004636060626868822 -0.002136983734528311 -0.003301527727629920 -0.002194481828328585 -0.001952161546553331 
0 0 0 0 0 
-0.1740724207508438 -0.1041275479050539 0.002212985839077182 -0.1954676347589959 -0.06060368134091102 
-0.4710460699195646 -0.4988519736475383 -0.5025906650672820 0.5816705638986582 -0.5211014890900578 
-0.05709782511073825 -0.03259975911451035 0.002002233415091769 -0.03428703309824939 -0.06190824756420772 
0 0 0 0 0 
0 0 0 0 0 
0 0 0 0 0 
0 0 0 0 0 
-0.002012706916045365 0.09495114606228128 -0.08726372531100879 -0.004996004481443063 -0.004290378791452710 
0 0 0 0 0 
0 0 0 0 0 
0 0 0 0 0 
-0.01853305874332492 -0.02631270148009359 0.03519447790503863 -0.02395705503339880 -0.01845885973707103 
0 0 0 0 0 
0 0 0 0 0 
0 0 0 0 0 
0 0 0 0 0 
0 0 0 0 0 
0 0 0 0 0 
0 0 0 0 0 
-0.01776249329049085 -0.01905144440972892 0.02394486013920003 -0.01912866889431876 -0.01907318095506872 
0 0 0 0 0 
-0.2358350424682951 -0.2740694018161504 -0.1761216496382627 -0.1125682143478641 0.1087370360310270 
-0.01814231951548315 -0.06035211846591170 -0.05371391359862716 0.002128768179494252 -0.01524714929318457 
0 0 0 0 0 
-0.4237033810317255 0.3045706426557407 -0.1592144255575554 -0.5259842345877214 -0.4441577380184280 
0.004156071708897902 -0.001915733713656502 -0.002959708055891422 -0.001967278812004423 -0.001750046866903978 
-0.04106632954358815 0.05414757459296628 -0.04148965008554979 -0.05001308577027309 -0.04089002129825190 
0 0 0 0 0 
0 0 0 0 0 
0 0 0 0 0 
0 0 0 0 0 
-0.1294932715055139 -0.09172334552477159 -0.08155274557457659 -0.1327976675034677 0.05100078397936445 
0 0 0 0 0 
-0.04979408932928203 -0.06733681602524998 0.01407242183253495 0.01747269581433384 -0.05982492501315546 
0 0 0 0 0 
0 0 0 0 0 
0 0 0 0 0 
0 0 0 0 0 
-0.7169813820014087 -0.8019172785173897 1.000051861693479 -0.8297945520063003 -0.7632008236429568 
-0.1351715575337561 -0.1671657089791413 0.2543753819712412 -0.1817260456918621 -0.1617144831892487 
-0.06771584595143779 -0.07983900436154556 0.1169850100562711 -0.08667558309921505 -0.07998988823900703 
-0.05646974153306039 -0.06991700222376712 0.09572798716820155 -0.06868393751368658 -0.06265964935632388 
0 0 0 0 0 
0 0 0 0 0 
-0.1652093971611373 -0.05041644195460303 0.03879523723646786 -0.1335464784112046 -0.1759592803963994 
0 0 0 0 0 
0 0 0 0 0 
-0.2491501822360549 -0.2338758312701643 -0.1945813398867347 0.007615677649726585 -0.1074996976618899 
-0.2805049276139331 -0.2272227029456687 -0.2111156322498617 -0.06392131794890720 -0.04588836235855799 
-0.1692332094036987 -0.02377561820191513 -0.07927687447708323 -0.02379587177058069 -0.2024951295534631 
0 0 0 0 0 
-0.04465521840498214 -0.05010523559529524 -0.04589248585834287 -0.04461254895120185 0.05187382914072245 
-0.04004121563856438 -0.04265175545677886 -0.04155559888187239 -0.01876302083104106 0.02362386741847685 
-0.7971457498699813 -0.9806546897645984 1.184501043279495 -0.8841849642538883 -0.8832091318138494 
0 0 0 0 0 
-0.03398626921106939 -0.03476412063293421 -0.009789656175933921 0.01248961796019051 -0.03584627562852358 
0 0 0 0 0 
0 0 0 0 0 
0 0 0 0 0 
-0.1059449564109045 -0.1588438142093675 0.2271110238269589 -0.2117099591472219 -0.1660919749981718 
-0.02500135290230208 -0.03414392407434921 0.04222335272533384 -0.02994420325761640 -0.02657732371867825 
-0.3833304913077656 -0.2892128478098390 -0.2392059970281891 -0.3409537497087513 0.1002080050690806 
-0.03082121647512901 -0.03934273557684282 -0.03169425291303772 -0.03742099505027445 0.05049736807444884 
0 0 0 0 0 
-0.4016643893820828 -0.4028209659113956 -0.5066220817635271 -0.01691845292704809 0.03459484695505983 
-0.1386023986566840 -0.1462949570396322 -0.1177570606906602 -0.1514920101371298 0.1402841284208071 
0 0 0 0 0 
-0.04724221439699850 -0.04987500936085006 0.06443578609551807 -0.05327624781103226 -0.05399826448721073 
-0.05565635273806258 -0.07289201041452743 -0.02961134489312152 -0.08079621523683919 0.06080340425695889 
0 0 0 0 0 
0 0 0 0 0 
0 0 0 0 0 
0 0 0 0 0 
0 0 0 0 0 
0 0 0 0 0 
-0.07347761061679850 -0.08122666289852118 0.1112997752953434 -0.08225046244944961 -0.09054022254830019 
-0.1512048711464529 -0.1778749825824404 -0.02849615804425952 -0.08068564032869080 -0.01777814997023248 
-0.01536962882194917 -0.01909840512061644 0.02604875575846700 -0.01884528519565996 -0.01702522065391337 
-0.01802293115449553 -0.01983498537074857 0.02278866066717670 -0.02102002913508545 -0.02127074701826227 
-0.1290448387202170 -0.1345530263480282 0.1240670840432843 -0.1418221755459531 -0.1051693820307311 
0 0 0 0 0 
0 0 0 0 0 
0 0 0 0 0 
-0.02717438377633354 -0.02921264893041237 -0.01743239042466366 -0.03183477886074130 0.02504471928323955 
-0.03340256119010043 -0.03293718915851609 -0.03418373502864087 -0.01010944431227144 0.01068371491266527 
0 0 0 0 0 
-0.01003390919788026 -0.01111142838757187 -0.01045589442362207 -0.01231222375636311 0.01404519735840440 
0 0 0 0 0 
0 0 0 0 0 
0 0 0 0 0 
0 0 0 0 0 
-0.01177929534869232 -0.01260007188063698 0.01423872812114924 -0.01292052822358038 -0.01209194786857211 
-0.08430720965011110 -0.1290524486100973 0.1495454957613813 -0.09935225779631396 -0.07744400977431590 
0 0 0 0 0 
0 0 0 0 0 
-0.1259782652693997 -0.1736954960732867 -0.1059250843872509 -0.1716088516149389 0.1399087211622299 
0 0 0 0 0 
0 0 0 0 0 
-0.08328580249887038 0.03112793165345484 -0.04879649917845318 -0.03867643605855446 -0.1047524190430489 
0 0 0 0 0 
0 0 0 0 0 
0 0 0 0 0 
-0.1591172288596060 -0.1908701401535719 0.2260680774576544 -0.1758840475381532 -0.1769928387414786 
0 0 0 0 0 
-0.06001113769424259 -0.06705498175515204 -0.03996877481664194 -0.001345590316941127 -0.007475971336739703 
-0.1072112837977406 -0.2060891876098988 -0.1456062401876906 0.04641422669353838 -0.06196240819726464 
0 0 0 0 0 
0 0 0 0 0 
-0.2119278017091779 -0.2524048591748357 -0.02884842247671766 -0.03796592088765725 -0.09201817715348648 
-0.01174512812400265 -0.01284286312735166 0.01676179853008847 -0.01366751433232782 -0.01269233745388195 
-0.06678326641200202 -0.08105973897036872 -0.06024026720049278 -0.08753245092506184 0.08487726764878682 
0 0 0 0 0 
0 0 0 0 0 
0 0 0 0 0 
-0.01842239601512468 -0.02062551760523160 0.02432215914307661 -0.01989735420860694 -0.01992746145707361 
-0.007692499948250040 -0.006986511796139962 0.007290598918083305 -0.007652788074879832 -0.007970978384843784 
-0.04493254329405898 -0.05462058849615817 -0.05976819498670557 0.06042874269075281 -0.04833986788255703 
-0.01845560433001311 -0.02534018135524159 0.02322457018569934 -0.02653168474957970 -0.02605254395876363 
-0.006112226651854315 -0.01457879245410723 0.01602714677051089 -0.01492822557089562 -0.01161881456830155 
0 0 0 0 0 
0 0 0 0 0 
0 0 0 0 0 
0 0 0 0 0 
0 0 0 0 0 
0 0 0 0 0 
-0.09827620545693037 -0.1110203755082868 -0.04690676764837188 -0.1127066512297850 0.07765318295927309 
0 0 0 0 0 
0 0 0 0 0 
-0.04667669906464587 -0.04851791457377956 -0.05141198136998264 -0.05154297006747612 0.05963383383552466 
-0.06261615866040073 -0.06909436131690490 0.06082539377017415 -0.04573233141925663 -0.06715118030524560 
0 0 0 0 0 
-0.1132382627305635 -0.01542173933725742 -0.05835613695653576 -0.1350533978415336 -0.009223320656109719 
-0.01286596052633801 -0.01282830370924579 -0.01511187592639054 -0.01451794775342201 0.01766740604191643 
-0.06536902981004570 -0.08209959035145017 -0.01016571117079486 -0.01499322160837665 -0.01937225533756835 
-0.04042717864325787 -0.04952322538760619 -0.01738540858091624 -0.05322136623838209 0.04369745443386464 
-0.08015392647653732 -0.08817078726321892 -0.09091634661544003 0.006037785578007498 -0.002592985003119215 
-0.04849605025164413 -0.06008462610281171 0.07799710135426437 -0.05649390279921081 -0.05287905551414193 
-0.01060788991591361 -0.02145681122682776 0.02672997216292565 -0.02202973008346210 -0.01936980615289257 
-0.01120458479633110 -0.01335055710569419 0.01735662975739207 -0.01215408776760350 -0.01356319838002743 
-0.06445333247874455 -0.09436904990252154 0.08740381170315857 -0.07895121304955352 -0.08005192600030160 
0 0 0 0 0 
0 0 0 0 0 
-0.01093677837754384 -0.01657472859584747 0.02512402054873543 -0.01776493564624678 -0.009815522242424393 
0 0 0 0 0 
0 0 0 0 0 
0 0 0 0 0 
-0.01585651241493062 -0.01733622991611965 0.02097623629687139 -0.01739078662441511 -0.01725057669041905 
0 0 0 0 0 
0 0 0 0 0 
-0.2520789423277340 -0.2220841290487729 -0.2020326432256556 -0.3104451750935275 0.2459354656667618 
-0.05713327364732587 -0.06562541077247404 0.05445585457302764 -0.06657862318567112 -0.03208059461745115 
0 0 0 0 0 
0 0 0 0 0 
-0.008757244204166330 -0.009006803233661794 0.01063954384943123 -0.009733216510089748 -0.008808826999225814 
0 0 0 0 0 
-0.1712690925795775 -0.1996708493332978 0.2493892232683645 -0.2062958206320420 -0.1744964113777526 
0 0 0 0 0 
0 0 0 0 0 
0 0 0 0 0 
0 0 0 0 0 
-0.06077979593381488 -0.05960191960630571 0.06956698945548409 -0.06409733257740319 -0.06531036453284801 
-0.1806638033793947 -0.1990739788431361 0.1089358837519752 -0.07796227064340551 -0.1997820733331202 
0 0 0 0 0 
0 0 0 0 0 
-0.1056237362818791 -0.1340790147049810 0.1297027312592532 -0.1331388701375944 -0.09096601045767516 
0 0 0 0 0 
-0.1455108481503348 -0.1649329533794152 -0.06302477728456247 -0.1782526027413784 0.1220695427190273 
-0.008477107516466017 -0.01128675857309287 0.01573881610026525 -0.01138489574349774 -0.008602959703435163 
0 0 0 0 0 
0 0 0 0 0 
0 0 0 0 0 
0 0 0 0 0 
-0.02787555230730263 -0.03764327719823387 0.04580501017641432 -0.03292445170355082 -0.02863668997643762 
0 0 0 0 0 
0 0 0 0 0 
0 0 0 0 0 
0 0 0 0 0 
0 0 0 0 0 
-0.1067119434848221 -0.1214340009786724 -0.07881882326949638 0.05898126276125126 -0.06803877508935613 
0 0 0 0 0 
0 0 0 0 0 
-0.07112742340205220 -0.07370279728672880 -0.001392391400754464 -0.08015892395213949 0.01583767505411669 
0 0 0 0 0 
-0.2668950491158437 -0.2867176834381717 -0.006578402014178606 -0.2846070284307134 0.04994555085699351 
-0.003893351792766825 -0.005098029035732469 0.006511062144788131 -0.004916743362221072 -0.003582967068412143 
0 0 0 0 0 
0 0 0 0 0 
-0.06824168975004670 -0.1027189964609921 -0.1839387203500011 -0.1786925664347302 -0.3248981111465290 
0 0 0 0 0 
0 0 0 0 0 
-0.09195106583863400 0.01828602747706618 -0.1046311200070803 -0.1142966365095149 0.02094611618106226 
0 0 0 0 0 
0.004636060626868822 -0.002136983734528311 -0.003301527727629920 -0.002194481828328585 -0.001952161546553331 
-0.07022337251920062 -0.003412270830574602 -0.007364263875276713 -0.09942731773785739 -0.02054381291051322 
0 0 0 0 0 
0 0 0 0 0 
-0.01778407682402130 -0.02455764916961653 -0.01975034301139342 -0.02184654835315758 0.03326597122291275 
0 0 0 0 0 
-0.005357191848846673 -0.006436780976804739 0.009426563412048117 -0.007056431337551924 -0.005999708519030893 
0 0 0 0 0 
-0.07437782867349264 -0.05788407021661707 0.06980998879242122 -0.08135625115283049 -0.08707020554212994 
-0.1062329378627629 -0.01815600935074114 -0.09579839246789398 -0.09970540493512614 0.0002126038789787163 
-0.06944460439110697 0.08509212949741778 -0.08315487166768215 -0.07014616839012602 -0.07005426054019445 
0 0 0 0 0 
-0.02896038441750043 -0.03044785487337101 0.03428265257245303 -0.03053564528057043 -0.03015282873539693 
0 0 0 0 0 
-0.07192048887254064 0.09598826144676449 -0.05592510702821919 -0.09562918521258880 -0.1019390075116123 
0 0 0 0 0 
0 0 0 0 0 
0 0 0 0 0 
-0.4390938403326425 -0.001243046810799347 -0.4014070158726289 -0.1473641798592473 -0.3770524051994988 
0 0 0 0 0 
-0.3825888504216433 -0.1854451778084537 -0.3876090211768988 0.2262296208914323 -0.3969861155012962 
0 0 0 0 0 
-0.1206453369742309 0.04063061827853018 -0.1377698907166858 -0.1214863319085517 -0.04522585275431511 
0 0 0 0 0 
-0.09400486256280326 0.06162917773117228 -0.1078823102115656 -0.09982541341204504 -0.04366098147482889 
0 0 0 0 0 
0 0 0 0 0 
0 0 0 0 0 
0 0 0 0 0 
-0.06569988518805608 0.06258859518377690 -0.07052492982645482 -0.09121728136028671 -0.02630748605184506 
-0.03705661377325562 -0.04402489199405566 0.01747281195856284 -0.04367506112922012 -0.0009040594746614334 
-0.009007246876370261 -0.01108923993888202 -0.01008684539624813 0.01495263126549084 -0.01105049753200720 
-0.04626317874016345 -0.05962215799801530 0.03453916122567231 -0.05396766300556440 -0.009236878772160912 
-0.009364858672286173 -0.01587918928107584 0.02347156152954153 -0.01449918726922362 -0.009071438738331519 
0 0 0 0 0 
0 0 0 0 0 
-0.09075949406972816 -0.1003658566170790 -0.1034963551909503 0.006579397671757459 0.02366806523798899 
0 0 0 0 0 
0 0 0 0 0 
0 0 0 0 0 
0 0 0 0 0 
-0.01519583897934414 -0.02269491221541725 0.03369870095445227 -0.02076702257639040 -0.01748304537308475 
-0.05943971517235664 0.1110336250861084 -0.1200703876618034 -0.1067265388038620 -0.09328230595844476 
-0.1625565713839562 0.03019105348306813 -0.2518610384530359 0.03407582795828883 -0.1506876750116404 
0 0 0 0 0 
0 0 0 0 0 
0 0 0 0 0 
0 0 0 0 0 
0 0 0 0 0 
-0.004342663963663155 -0.005686366955155273 0.007262471116500049 -0.005484160012810906 -0.003996459297588346 
0 0 0 0 0 
-0.2630498839586721 -0.1375498849113087 -0.2713296185669529 -0.3121988912104227 0.2014835271700314 
-0.1015558330266474 -0.1183132344850014 -0.03926109438662301 -0.1189783287672855 0.08053646085842192 
-0.1266365758951153 -0.1340994037117270 0.1605106448873797 -0.1397721161276937 -0.1337789270411697 
0 0 0 0 0 
0 0 0 0 0 
-0.007644068680187715 -0.008400733309932249 0.01039006504066536 -0.008197741609613575 -0.008344824738398982 
0 0 0 0 0 
-0.04939824689266096 -0.007287762602130953 -0.01673692465894791 -0.07552404717252419 0.007356295167239776 
-0.009868877466905474 -0.01106329028285540 -0.0007077422516311469 0.003250336992958252 -0.01087391594787092 
-0.1240654383078554 -0.1570838604658062 0.05697500603276931 -0.1658016895587996 -0.04466673565931743 
-0.2268051254382578 -0.2740652714093506 0.2149946222523095 -0.2596651146371545 -0.1173412270794852 
-0.06051225715552856 -0.07096129785896776 0.08853725747577951 -0.06739926613625868 -0.06827558850549834 
0 0 0 0 0 
-0.03652749110328319 -0.05999287106598857 0.07233059477889293 -0.04268751977566819 -0.03837720492121806 
0 0 0 0 0 
0 0 0 0 0 
0 0 0 0 0 
0 0 0 0 0 
0 0 0 0 0 
0 0 0 0 0 
0 0 0 0 0 
-0.008757244204166330 -0.009006803233661794 0.01063954384943123 -0.009733216510089748 -0.008808826999225814 
-0.2452134275827792 -0.2141491841926276 -0.1843131078054967 -0.2317990456785996 0.09216008277608091 
-0.03268787283188823 -0.05311308016625350 -0.01908869339618766 -0.04681490665268916 0.04218152226159987 
-0.004404084501192802 -0.005003262595783703 0.006933996567712718 -0.005350853737290008 -0.004989780824703422 
0 0 0 0 0 
0 0 0 0 0 
0 0 0 0 0 
0 0 0 0 0 
0 0 0 0 0 
-0.06217089531711773 -0.08488891066551650 0.04492485821682594 -0.08559668446786262 -0.03302727321663327 
0 0 0 0 0 
-0.03295119855772638 -0.04295954699813528 0.05607841102021020 -0.04339953703664307 -0.03275202022996020 
0 0 0 0 0 
-0.06994614555558716 -0.1488612640755588 0.1851166720966148 -0.1266446765808074 -0.1070965073474905 
-0.01393422684134805 -0.01581047549761021 -0.01624238196098608 0.02178582996453459 -0.01634256684561466 
0 0 0 0 0 
0 0 0 0 0 
0 0 0 0 0 
-0.02263731209032333 -0.03689469756986041 0.04827681126605393 -0.03248720031696118 -0.01958762413494793 
0 0 0 0 0 
0 0 0 0 0 
0 0 0 0 0 
0 0 0 0 0 
0 0 0 0 0 
0 0 0 0 0 
0 0 0 0 0 
0 0 0 0 0 
-0.05620990375588389 -0.06878791880137024 -0.06472728925063083 0.03661562930424724 -0.01643018841563397 
-0.1499918141367850 -0.1918165059327757 -0.1785059024514682 -0.1203192267428860 0.1496539950354799 
0 0 0 0 0 
0 0 0 0 0 
-0.03701446479965202 -0.04857933872790692 0.01350592370726861 -0.04873397526729616 -0.003040968863098623 
0 0 0 0 0 
0 0 0 0 0 
-0.1437146899143729 -0.1602882619596769 0.003273900183078906 -0.1657090787845804 0.04452083581933691 
-0.09948394491880010 -0.1060304957230100 0.1181975324030446 -0.09924941843237560 -0.1111081237325902 
0 0 0 0 0 
0 0 0 0 0 
0 0 0 0 0 
0 0 0 0 0 
0 0 0 0 0 
0 0 0 0 0 
0 0 0 0 0 
0 0 0 0 0 
0 0 0 0 0 
0 0 0 0 0 
0 0 0 0 0 
0 0 0 0 0 
-0.01543092202524234 -0.02978127534304836 0.02242336776252931 -0.007081661264609789 -0.01309540364775028 
0 0 0 0 0 
0 0 0 0 0 
-0.1141754889710086 -0.05113566348322789 0.02983396544627075 -0.08078529162476130 -0.1194661835141297 
0 0 0 0 0 
0 0 0 0 0 
0 0 0 0 0 
0 0 0 0 0 
-0.1250416575738698 -0.01355520030968116 -0.05215804297009388 -0.1085183336610231 -0.07131211876640377 
-0.05009034626730754 -0.06551335591876517 0.08552859923961119 -0.06875667673346533 -0.06369381543224871 
0 0 0 0 0 
-0.005166558398269800 0.008564696225173368 -0.006054982320483288 -0.003229784725877737 -0.008462473751063853 
-0.06552387811016692 -0.07531988044268800 0.03429995274463657 -0.07429152681354104 -0.01286903896922129 
0 0 0 0 0 
-0.01313756236202031 -0.01405298238966252 0.01588059158973521 -0.01441039045738630 -0.01348626675018385 
0 0 0 0 0 
0 0 0 0 0 
0 0 0 0 0 
-0.2911205948715075 -0.1194843201004827 -0.1112627946630343 -0.06712944642214126 -0.2688083264856240 
0 0 0 0 0 
-0.01171379004590143 -0.01311109558832739 0.01720728366062876 -0.01365330414732500 -0.01287927354062745 
0 0 0 0 0 
-0.03661149882285934 0.04701755693760156 -0.04057442036071050 -0.03673804678352878 -0.04263474670660911 
-0.004418690048968082 -0.004837208618717654 0.006242763844806602 -0.005125470279543376 -0.004881361824009830 
0 0 0 0 0 
-0.01206856442886345 -0.03512367686969118 -0.01971993113813928 -0.03683577890905822 0.009732384695453138 
0 0 0 0 0 
-0.01874325256324879 -0.04429628310009142 0.005648860744151566 0.002162112497893318 -0.04982880424260856 
-0.1180469117930518 0.1413210304029546 -0.08809554200308249 -0.1593858330800887 -0.1165305554385042 
0 0 0 0 0 
0 0 0 0 0 
0 0 0 0 0 
0 0 0 0 0 
-0.02476311270238233 -0.02596157673314016 -0.02807043382861900 -0.02619527727967880 0.03100694403419748 
0 0 0 0 0 
0 0 0 0 0 
0 0 0 0 0 
0 0 0 0 0 
-0.05451018274671862 -0.02538332992582876 -0.0001037321042777715 -0.06290685111943087 -0.01803276949452764 
0 0 0 0 0 
-0.1428448821412406 -0.1068286695758065 -0.1250816327878063 -0.07046508947608420 -0.09701914019109150 
-0.03901713290180505 -0.03070922423510345 -0.01425867849036152 -0.01403593467847240 -0.01698816777251874 
-0.09687432025050914 -0.03260315234755214 -0.09510735241929771 -0.1044288823084163 0.03766015867270306 
-0.08867160692514017 -0.09510357187679214 0.1109920808328032 -0.09504470494305920 -0.09308237722762824 
0 0 0 0 0 
-0.03417276236212753 -0.03608852628841588 0.03603376285038640 -0.03348715426709753 -0.03278277123950478 
0 0 0 0 0 
-0.08550668788667543 -0.04650034411081442 -0.06144145242362251 -0.002559651658952920 -0.05339026824213390 
0 0 0 0 0 
0 0 0 0 0 
-0.03190846591512409 -0.03360871187620676 -0.0007329423503615832 0.006407163821143406 -0.03454565987010520 
0 0 0 0 0 
-0.008774909992064200 -0.01673550179211458 0.02604168356076680 -0.01763618383848346 -0.004928569587775834 
0 0 0 0 0 
-0.04936325910083157 -0.05236978651288599 -0.01891899556620104 -0.04885771559783428 0.02217135510666869 
-0.07120732722864742 -0.1090251440895019 0.1126139437350061 -0.1075571204312035 -0.07332416707016880 
-0.06123734947235408 -0.07731018599603800 0.08847780066240137 -0.08752087686018016 -0.09638531096755079 
0 0 0 0 0 
0 0 0 0 0 
0 0 0 0 0 
0 0 0 0 0 
0 0 0 0 0 
0 0 0 0 0 
-0.3074031962138473 0.1841282478316027 -0.3248847688310833 -0.1538427625383503 -0.3149915811903268 
0 0 0 0 0 
0 0 0 0 0 
0 0 0 0 0 
-0.1305194673045743 -0.1374500921082961 -0.1558707217305290 -0.07538838525153467 0.08196644622724945 
-0.03511817642787325 -0.04273140155396537 -0.03776533548566938 0.05185922854903653 -0.03850947599283399 
-0.08050817452511554 -0.08571454810046751 0.09602357998871797 -0.08048631626612317 -0.09027679552685466 
-0.01095012247089830 -0.01125869768754116 0.01471444017607929 -0.01233204786144162 -0.01239324878210237 
0 0 0 0 0 
0 0 0 0 0 
0.01291254430413288 -0.008153364601856295 -0.007723531092222714 -0.008587551268209462 -0.008733283984183746 
0 0 0 0 0 
0 0 0 0 0 
0 0 0 0 0 
0.01988624255791162 -0.02857175740003359 -0.02887515957022465 -0.006773719331373638 -0.02877316796347265 
0 0 0 0 0 
-0.03981625606405962 -0.04175233168929181 -0.04536822081426756 -0.01577071809954337 0.02565560958136651 
-0.1011241887287657 -0.1439517065430958 -0.1310014659655419 -0.06902875122410956 0.06447083500997641 
0 0 0 0 0 
0 0 0 0 0 
-0.03561529598690388 -0.01694129300421558 -0.05875827474482918 0.02241191778840830 -0.07033699416584553 
-0.1267296047072113 -0.1519185538560199 -0.09696094122608022 -0.1036359106205129 0.06713471762039794 
0 0 0 0 0 
0 0 0 0 0 
-0.01630083455239490 -0.01804199577272452 -0.01745277734224031 -0.02090900437215741 0.02469518434607074 
-0.06407481383895983 -0.07759181826335898 0.1419639296712079 -0.09252864634002510 -0.05885587434060980 
0 0 0 0 0 
-0.03704380787750757 -0.09034622892644838 -0.03799370277349523 0.02483288745675155 -0.08004407824359659 
0 0 0 0 0 
0 0 0 0 0 
0 0 0 0 0 
0 0 0 0 0 
-0.1080073209178751 -0.1364700542966795 -0.1231060082722061 0.1593187073818731 -0.1126139895648426 
0 0 0 0 0 
-0.09632373689547799 -0.04162175565762855 -0.1162140071913500 0.04245180754178416 -0.08494488731228089 
-0.007209215661397059 -0.01952650009462105 -0.01970828622476142 -0.01932029021106969 0.01590522947091778 
0 0 0 0 0 
-0.08286144880029765 -0.09841023362873834 -0.08926757308585388 0.1186275044194448 -0.08609464785244123 
-0.04602384801587167 -0.03576715644530644 -0.04355406657885470 0.01156515704397393 -0.07033670354562586 
0 0 0 0 0 
0.03279469889749712 -0.01893548916450421 -0.02260622189383085 -0.01954899297309553 -0.01840514699443684 
0 0 0 0 0 
-0.1234053365254244 -0.05993580527096565 -0.04018715710049229 -0.1383360398610528 -0.002797991751555453 
0 0 0 0 0 
0 0 0 0 0 
0 0 0 0 0 
-0.3763425942903432 -0.1521269045170479 -0.2739137351294561 -0.2780212803550294 -0.07108181655583673 
-0.02606946264578786 -0.03892958726181231 0.005913203556061343 0.01466877049332463 -0.03251206575203929 
0 0 0 0 0 
0 0 0 0 0 
0 0 0 0 0 
0 0 0 0 0 
-0.08086909036134372 0.03131704598421219 -0.08958311521919204 -0.08622840513842636 -0.01615072028961692 
0 0 0 0 0 
0 0 0 0 0 
0 0 0 0 0 
-0.1075886678871899 0.04945110390983912 -0.08067415676238425 -0.07701213193183813 -0.1016470930106980 
0 0 0 0 0 
-2.715043118072057e-05 -0.05017442314403129 -0.006049211308023906 -0.01410378136835187 -0.04674643082969750 
0 0 0 0 0 
0 0 0 0 0 
0 0 0 0 0 
-0.2378208534654426 -0.2962678705409433 0.2455621630631986 -0.2132732102786173 -0.1944668880832619 
0 0 0 0 0 
-0.05482258123567616 -0.09898967058893235 0.09772795416214612 -0.1022773748175653 -0.09377771562214575 
-0.1373957377189121 0.02020500962292867 -0.06965844025669940 -0.1825553430828511 -0.07661095553233817 
0 0 0 0 0 
0 0 0 0 0 
-0.01693414603294548 -0.01699125194977472 0.02087813427355532 -0.01866647116455586 -0.01823222534086115 
0 0 0 0 0 
0 0 0 0 0 
-0.1795207000184194 0.1927051263147589 -0.1851148110711272 -0.2086424812684040 -0.1528455256347509 
-0.2454238158803992 -0.1443734730494868 -0.09988508828042897 -0.1338816076184503 -0.1051577929816632 
0 0 0 0 0 
-0.04832193693870369 -0.05674402142138639 -0.05643183304468528 0.03970872513809246 -0.01914000771129312 
-0.07862453285674603 0.06662138314232634 -0.1362175885881595 -0.1134073343935416 -0.08016463047789510 
0 0 0 0 0 
0 0 0 0 0 
0 0 0 0 0 
0 0 0 0 0 
0 0 0 0 0 
0 0 0 0 0 
0 0 0 0 0 
0 0 0 0 0 
0 0 0 0 0 
-0.01402160177113432 -0.01995595315405599 0.02576242348970579 -0.01706630421122675 -0.01478869965170290 
0 0 0 0 0 
0 0 0 0 0 
0 0 0 0 0 
0 0 0 0 0 
-0.02964878956608864 -0.03053156003606390 -0.03236233309014693 -0.03290464940583496 0.03628825210590168 
-0.01889710235907342 -0.02042116988033544 -0.02021360495397753 -0.02275025011935225 0.02608143674170732 
0 0 0 0 0 
-0.03535256717357613 -0.07376632167004450 -0.01977047665424641 -0.06688415669384198 0.02466571501314648 
0 0 0 0 0 
0 0 0 0 0 
-0.1050539022510289 -0.09513598498310585 0.05818764284283905 -0.1258229350203486 -0.06560710265502041 
-0.02755400787663849 -0.03028227238020893 -0.02882550170909940 -0.02980358806856766 0.03415338281596947 
0 0 0 0 0 
-0.1063192937116222 -0.07101281710136612 -0.1724388584927428 0.06317552181944584 -0.08161826813005543 
-0.008287668708936841 -0.01233475733938910 0.01247804619692395 -0.01256876616000648 -0.01139343167187421 
0 0 0 0 0 
0 0 0 0 0 
0 0 0 0 0 
0 0 0 0 0 
0 0 0 0 0 
0 0 0 0 0 
-0.07411212589575032 -0.08022887587731906 -0.08197376602413341 -0.04510522801882318 0.06164905637614832 
-0.1070036787620737 0.1975074803798184 -0.1542521473016717 -0.1353301998659829 -0.1181791415826349 
0 0 0 0 0 
0 0 0 0 0 
-0.01442478179208740 -0.01503442040011517 -0.01508247096666593 -0.01585575495475642 0.01742867731219020 
0 0 0 0 0 
0 0 0 0 0 
0 0 0 0 0 
-0.2283587894949695 -0.2185669083551695 -0.1450963348979593 0.1021703521976021 -0.3340982895793070 
-0.3379978975212644 -0.2745610531615929 -0.2051780336827476 0.1217922055674048 -0.3993137809771137 
-0.3517444468590666 -0.2840900530805651 -0.2724801380450148 0.2697144027744446 -0.4326033680663422 
-0.2980205278945056 -0.1805553810461185 -0.1432981161384219 0.01289684147217646 -0.2989047800037676 
-0.04827632257733098 0.04745180848124264 -0.04097062592498930 -0.04137912446371852 -0.05639030308428961 
0 0 0 0 0 
0 0 0 0 0 
0 0 0 0 0 
0 0 0 0 0 
0 0 0 0 0 
0 0 0 0 0 
0 0 0 0 0 
0 0 0 0 0 
-0.2397753792778857 -0.3045297637552170 -0.1229650322952579 0.1050271910115151 -0.2262467103519628 
0 0 0 0 0 
-0.1510885724331042 0.08368255805092983 -0.1255518087983424 -0.04145773372446564 -0.2085076531555847 
-0.1434257029108665 -0.02929702642320673 -0.1131433130320355 -0.2041316897075691 -0.04886482567616136 
0 0 0 0 0 
0 0 0 0 0 
0 0 0 0 0 
-0.3226818391057353 -0.2905888516704082 0.3069724286594381 -0.3697394627174633 -0.3145187345760816 
0 0 0 0 0 
-0.03884685449519353 -0.04819194187235516 -0.02633986749407797 0.01529473387177931 -0.01340960437623802 
0 0 0 0 0 
0 0 0 0 0 
0 0 0 0 0 
-0.1271784428975843 -0.1188289493067137 -0.07827169556661283 -0.09503554038093891 0.04197386606287194 
-0.01180011316361311 -0.01845898006498992 -0.02036207117742622 -0.01929825323231281 0.01811358177567293 
-0.01570083147017582 -0.01614826495183032 0.01907559969836061 -0.01745064868865331 -0.01579331407693060 
0 0 0 0 0 
0 0 0 0 0 
-0.01563682228588416 -0.02225478216460279 0.02873012971966811 -0.01903225967928774 -0.01649228612162245 
0 0 0 0 0 
-0.01751113185631880 -0.01801015426217462 0.02127500968282206 -0.01946270238909093 -0.01761427767533962 
0 0 0 0 0 
-0.03833211149564397 -0.06867143171573563 0.08315341022092747 -0.07035935813181787 -0.06327994274232719 
0 0 0 0 0 
0 0 0 0 0 
0 0 0 0 0 
0 0 0 0 0 
0 0 0 0 0 
0 0 0 0 0 
0 0 0 0 0 
-0.004985909708417069 -0.005920010633931801 0.007312410388793805 -0.005569583392854518 -0.005381895093060904 
-0.01111440898985005 -0.02081652328040402 0.02546986610130734 -0.01805296721182664 -0.01874512726063092 
-0.1414744128750040 -0.1920938968347215 0.06608479270598627 0.01422210562776725 -0.1541651649103984 
-0.03052617950798319 -0.003626833057126890 -0.04601467049012234 -0.002508580508279988 -0.005471643433547405 
-0.004470552973175642 -0.005308102771311033 0.006556580426941024 -0.004993896611132261 -0.004825608267431185 
-0.1406348930517967 -0.08953892318374836 -0.1586992619304423 -0.1251390622898411 0.06268608952281454 
0 0 0 0 0 
0 0 0 0 0 
-0.09788996797241160 -0.1251195128555872 -0.1002245290547286 0.1887795368466553 -0.1372912019494578 
0 0 0 0 0 
-0.02995021445041968 -0.03616720590386043 0.001568256112854077 -0.03716537998629403 0.01500821179898297 
0 0 0 0 0 
0.001667898184509899 -0.01710978073011409 -0.01788266742393212 0.008161252228998316 -0.01674845270556511 
0 0 0 0 0 
-0.004553358844501885 -0.005419314205876038 -0.006346221796528257 0.007757483430457095 -0.004838864001583071 
-0.07536539565276469 -0.04709427286628046 -0.07200291106448625 -0.05500297364898044 0.01948517872919590 
0 0 0 0 0 
-0.02435360223075330 -0.03050779549322486 -0.004161877143971728 0.01681358055441652 -0.02932503895421003 
0 0 0 0 0 
0 0 0 0 0 
0 0 0 0 0 
0 0 0 0 0 
-0.1060151142714928 -0.1170006192113133 -0.03816152404187966 0.04249347481317894 -0.09415900936396134 
-0.1228109192429455 -0.1842489352228486 0.1969422998403883 -0.1788359090170255 -0.1745894082086943 
-0.2289271860302719 -0.1464060839559521 -0.2492060496415604 -0.1185503080261990 0.03148110696900770 
0 0 0 0 0 
-0.1521210841231251 -0.02722178096627963 -0.1432178378138948 0.02013426688195309 -0.1192993046237615 
0 0 0 0 0 
0 0 0 0 0 
0.003816917862666953 -0.001759401363579415 -0.002718182778854639 -0.001806740153763398 -0.001607235296852339 
0 0 0 0 0 
-0.06555118951753913 -0.06856329188237481 0.08008261539072935 -0.07453055787138190 -0.06649982153247085 
0 0 0 0 0 
0 0 0 0 0 
0 0 0 0 0 
0 0 0 0 0 
-0.06170989701547207 -0.1281084593336687 -0.01295442659638016 -0.1357159901498828 -0.03141053851210007 
-0.1706827080776384 -0.1529024567449539 -0.1219935353898029 -0.1974459804207371 0.004357803198155822 
-0.006762636927839756 -0.03409267872037087 -0.03391747310158032 -0.03502990448039309 0.01573365707543358 
0 0 0 0 0 
-0.1795549559053011 -0.1372807012027732 -0.2150789517514021 -0.1031072107296602 0.09572318859283730 
-0.009865530062236418 -0.02187168686771249 0.02280271543381437 -0.01903358302323117 -0.01653874651860688 
0 0 0 0 0 
0 0 0 0 0 
0 0 0 0 0 
-0.01536180804511947 -0.03586717988616611 -0.02974922912451896 0.04996354604842074 -0.03341798201082481 
0 0 0 0 0 
0 0 0 0 0 
0 0 0 0 0 
0 0 0 0 0 
0 0 0 0 0 
0 0 0 0 0 
0 0 0 0 0 
0 0 0 0 0 
0 0 0 0 0 
0 0 0 0 0 
-0.004235185385647990 -0.004545513763476254 -0.004920451430419430 0.006594958234423402 -0.005303127729118889 
0 0 0 0 0 
0 0 0 0 0 
-0.02253483361681859 -0.03416519953667720 0.04530590027610516 -0.02796918684034619 -0.02346111707487007 
0 0 0 0 0 
0 0 0 0 0 
-0.04608083044819500 -0.05284649898038064 -0.05093831584177780 0.06440679787813469 -0.04482471022021622 
-0.08228779321290403 -0.06590737274682272 -0.1449525873419929 0.08413322217865923 -0.1456430697872235 
-0.01455365542225009 -0.01540071301419531 -0.01756791602918645 0.02380457819935933 -0.01874279691463683 
0.005041530328235486 -0.002751859955435076 -0.003704362598526821 -0.002766219997798179 -0.002473368429699802 
-0.08740500505262085 -0.09817281847684069 -0.1021931614331482 0.02876494534782493 0.0001966334859103515 
0.004636060626868822 -0.002136983734528311 -0.003301527727629920 -0.002194481828328585 -0.001952161546553331 
-0.08697583262835945 -0.1019603049145173 -0.04296681275577485 0.06820074557210416 -0.09091632086073126 
0 0 0 0 0 
0 0 0 0 0 
-0.01359707046379589 -0.04298267421991691 -0.03624440661286142 0.04063149579115653 -0.03897070968729686 
-0.1247358197259452 -0.1317078564238316 -0.1111403227820467 -0.09014955660010304 0.07293478354007066 
0 0 0 0 0 
-0.006483276254953578 -0.008562581560682443 -0.01191890362544860 0.01525488046896301 -0.007446128428676466 
0 0 0 0 0 
0 0 0 0 0 
0 0 0 0 0 
-0.03227355269198914 -0.03499318545391681 0.04308692427088213 -0.03622754091235556 -0.03423259968991820 
-0.01709515279414247 -0.02723897547474090 0.03028573511400817 -0.02732564212264824 -0.02477839600152828 
0 0 0 0 0 
-0.02107443368683235 -0.02277410484809211 -0.02254262421190127 -0.02537154259890706 0.02908654981204083 
0 0 0 0 0 
-0.1667932602994321 -0.1875699840175463 0.09599455768556316 -0.1911014884776040 -0.03773299678706137 
0 0 0 0 0 
0 0 0 0 0 
-0.05043120502508262 -0.03579948992310614 0.04089663651412755 -0.05528403019612201 -0.05553573594294263 
-0.1050810304630073 -0.1229427302135373 0.1452829490583371 -0.1120546857862659 -0.1134791611701064 
-0.1118794242981092 -0.02287982498956869 -0.09694132352576922 -0.1194555426251640 0.008049365872380938 
0 0 0 0 0 
0 0 0 0 0 
0 0 0 0 0 
0 0 0 0 0 
0.009269727197503025 -0.04086618285483208 0.02188573196415477 -0.04229085019168873 -0.02985622852198368 
0 0 0 0 0 
0 0 0 0 0 
0 0 0 0 0 
0 0 0 0 0 
0 0 0 0 0 
0 0 0 0 0 
-0.01999757718822250 -0.02854741018358349 0.03979895652232736 -0.02447665430380221 -0.02568383125793117 
0 0 0 0 0 
-0.1125888590449231 0.1065074363637183 -0.1911061658760216 0.01953818553627560 -0.1993892793411673 
0 0 0 0 0 
-0.04993243096405592 -0.06568025588681534 0.09569054065804810 -0.06599434725818411 -0.05531966778634116 
-0.06077979593381488 -0.05960191960630571 0.06956698945548409 -0.06409733257740319 -0.06531036453284801 
0 0 0 0 0 
-0.09579988238846217 -0.03723452924409161 -0.02223963630999485 -0.07440053813625160 -0.06361945060781710 
0 0 0 0 0 
-0.2763280437373938 0.003426667878397449 -0.1967553302836476 -0.1075007119033682 -0.3126767932696897 
0 0 0 0 0 
0 0 0 0 0 
0 0 0 0 0 
-0.06836529516905716 -0.07670904640800803 -0.07025950054243493 -0.06829996999751872 0.07941669008518530 
0 0 0 0 0 
0 0 0 0 0 
0 0 0 0 0 
0 0 0 0 0 
0 0 0 0 0 
-0.05654284983078912 -0.05472442231152217 0.06099306751933687 -0.05893845396561402 -0.05883330378773923 
0 0 0 0 0 
0 0 0 0 0 
-0.003170533055256855 -0.003601885803909102 0.004991835492033924 -0.003852119241428686 -0.003592180177043435 
-0.01677889417006141 -0.01747884438514905 -0.004467772367053576 0.006309591215216905 -0.01767970999007391 
0 0 0 0 0 
0 0 0 0 0 
0 0 0 0 0 
0 0 0 0 0 
0 0 0 0 0 
0 0 0 0 0 
-0.003673954571660151 -0.004547247560679952 0.006448733512576596 -0.004592495033809144 -0.004320465874162053 
0.01608385929364226 -0.009331406294833429 -0.01191979686987165 -0.009618774727677140 -0.008665881137734607 
0 0 0 0 0 
-0.02306212442909476 -0.03458957727534086 0.03829582929720964 -0.03460407989530016 -0.03230669526190949 
-0.01314531065755423 -0.01607975724342519 0.01927473985232461 -0.01459862682439786 -0.01334864266592284 
0 0 0 0 0 
-0.1693442061857245 -0.2042882846331567 0.05011772790788994 -0.1395777236300153 -0.04200513510013235 
0 0 0 0 0 
0 0 0 0 0 
0 0 0 0 0 
0 0 0 0 0 
0 0 0 0 0 
-0.01026916019960045 0.08214042981197926 -0.04276803635966524 -0.02776895599748463 -0.02538072017321658 
-0.0007211312219778502 -0.008573764711333046 0.006125035684418197 -0.009250913165880507 -0.007951870065584224 
-0.01455365542225009 -0.01540071301419531 -0.01756791602918645 0.02380457819935933 -0.01874279691463683 
-0.008757244204166330 -0.009006803233661794 0.01063954384943123 -0.009733216510089748 -0.008808826999225814 
0 0 0 0 0 
0 0 0 0 0 
0 0 0 0 0 
0 0 0 0 0 
0 0 0 0 0 
-0.06946374981780515 -0.07097285431808592 0.08408963380172055 -0.07506391738391006 -0.07330201862579480 
-0.01076799643031302 -0.01212856775994914 0.01496324603000806 -0.01241816327823728 -0.01126362969720811 
-0.5524233064597581 -0.5044872253705119 -0.5152620871575929 0.4580490832515208 -0.5325725125749153 
-0.05935491850964848 -0.08251832934452333 0.04717383796372440 -0.05559711542681684 -0.01626490974756011 
-0.007774649136226304 -0.01206986242006576 0.01077059810830722 -0.01168518175518318 -0.01174427958470874 
-0.03000684417192050 -0.04335545271947400 -0.01738735995855591 0.03880814331860696 -0.03476244542387263 
0 0 0 0 0 
0 0 0 0 0 
-0.02701737112266796 -0.03163327700288848 0.04187280877144365 -0.03229481543638291 -0.02925527657592150 
0 0 0 0 0 
-0.007623944875833666 -0.009662409976897088 0.01501963018455249 -0.009920186953585562 -0.008711072761152760 
-0.02401124433528634 -0.05175589036826710 0.03752983375214115 -0.04086384936171483 0.01543781998947688 
-0.1754235744957699 0.007180414379455802 -0.03457266638855520 -0.1454723315726129 -0.2161871669909390 
-0.02161833202269246 -0.03109579484112371 0.03212330147405423 -0.02909616667228599 -0.02808899372321737 
-0.06376633004131962 -0.07918121224682352 0.08695201454405857 -0.1083960910379770 -0.09960737271727005 
0.003816917862666953 -0.001759401363579415 -0.002718182778854639 -0.001806740153763398 -0.001607235296852339 
0 0 0 0 0 
-0.1126577715491013 0.1200285377038985 -0.1106275333301298 -0.1169360585827378 -0.1156636095974572 
0 0 0 0 0 
0 0 0 0 0 
-0.003932646574936790 -0.006422980732884523 0.007765269332698468 -0.006961205800917852 -0.005951057822847689 
0 0 0 0 0 
0 0 0 0 0 
0 0 0 0 0 
0 0 0 0 0 
0 0 0 0 0 
0 0 0 0 0 
0 0 0 0 0 
0 0 0 0 0 
0 0 0 0 0 
-0.04429976651306756 0.005889217369051186 -0.04266963771191223 -0.008081369668143419 -0.04448762589974924 
-0.1333630081953751 -0.1451989872171790 -0.1401167198170513 -0.1453135559037301 0.1687877699660069 
-0.01096108795108009 -0.01231730039635496 0.01638854662657422 -0.01266387096986584 -0.01252697784402218 
0 0 0 0 0 
0 0 0 0 0 
0 0 0 0 0 
0 0 0 0 0 
0 0 0 0 0 
-0.05510310347546504 -0.06414470242894892 0.07215233497248771 -0.05708518885766269 -0.05894518785558523 
0 0 0 0 0 
0 0 0 0 0 
0 0 0 0 0 
-0.01249564433662154 -0.01488888846136769 0.01935656485921819 -0.01355455474171484 -0.01512603154017452 
0 0 0 0 0 
0 0 0 0 0 
0 0 0 0 0 
0 0 0 0 0 
0 0 0 0 0 
0 0 0 0 0 
0 0 0 0 0 
-0.007234347927380016 -0.009417422040303188 0.01465662380820628 -0.009578750801031634 -0.009030904298941551 
0 0 0 0 0 
0 0 0 0 0 
-0.05649189491505684 -0.06408297908849568 0.008955343262402427 -0.06088851106558106 0.006644968105679597 
0 0 0 0 0 
0 0 0 0 0 
-0.01211569276904710 -0.02006936182868659 0.01977930948042148 -0.02076955123594339 -0.01909373263009254 
0 0 0 0 0 
0 0 0 0 0 
0 0 0 0 0 
0 0 0 0 0 
0 0 0 0 0 
-0.07441584634757410 -0.001610723574653128 -0.1125471601489029 0.001532030034466220 -0.1430943854782418 
0 0 0 0 0 
-0.05758624102865394 -0.06440183008812968 -0.06065100048681078 0.03599194466339382 -0.02419149016165052 
-0.1273541288307484 0.07939011475181165 -0.1245757917975374 -0.1325540738405264 -0.07158609439272451 
0 0 0 0 0 
0 0 0 0 0 
-0.2386278898548032 -0.2601512247983313 0.2971246392753469 -0.2583417578115508 -0.2452636075989280 
-0.2567868708919490 -0.2720382075706779 0.2918521464040129 -0.2522210565998802 -0.2680425744160375 
0 0 0 0 0 
0 0 0 0 0 
-0.06363858274093248 -0.07872639070486445 0.004089398470502332 0.009438274423852460 -0.06989863257025813 
0 0 0 0 0 
0 0 0 0 0 
0 0 0 0 0 
-0.01395598700620006 -0.01806711880061013 0.02842484646955998 -0.01966509565698510 -0.01690809211642057 
0 0 0 0 0 
0 0 0 0 0 
0 0 0 0 0 
0 0 0 0 0 
-0.006710091292449028 -0.01502827247034146 0.01774722602663144 -0.009153889887953884 -0.005093248723537678 
0 0 0 0 0 
0 0 0 0 0 
0 0 0 0 0 
-0.1471914463829875 -0.1485311150871641 -0.1675936993195046 0.03384003786565472 -0.05902415419780695 
0 0 0 0 0 
0 0 0 0 0 
0 0 0 0 0 
0 0 0 0 0 
0 0 0 0 0 
-0.03442545218047651 0.06113813029075061 -0.04233803970845165 -0.04318837844112960 -0.04285309188184059 
0 0 0 0 0 
0 0 0 0 0 
0 0 0 0 0 
0 0 0 0 0 
0 0 0 0 0 
-0.03642804735806109 -0.04549614781784590 -0.04296739990770633 0.01241433590138398 -0.0007189696981829638 
-0.03398836896156701 -0.01612367465304388 -0.07623850338194732 -0.04085388154447101 -0.03042675628776764 
0 0 0 0 0 
0 0 0 0 0 
-0.08988046067155135 -0.09644188250016157 -0.09614389921112246 -0.1026516030732149 0.1185330658802353 
0 0 0 0 0 
0 0 0 0 0 
0.001379449731873017 0.01206155064985968 -0.02903450353736679 -0.02938679954092598 -0.02843876083727420 
0.02050643533820207 -0.01692886037207872 -0.01173191280672836 -0.01833724813358198 -0.01726259929022448 
0 0 0 0 0 
0 0 0 0 0 
0 0 0 0 0 
0 0 0 0 0 
0 0 0 0 0 
0 0 0 0 0 
0 0 0 0 0 
0 0 0 0 0 
0 0 0 0 0 
0 0 0 0 0 
0.01262054693898388 -0.005817418213461757 -0.008987605859902650 -0.005973942782511356 -0.005314284780480889 
0 0 0 0 0 
0 0 0 0 0 
0 0 0 0 0 
0.01073063861631439 -0.006612083194642240 -0.006151825312300980 -0.007047833113453178 -0.007285394522513648 
0 0 0 0 0 
0 0 0 0 0 
-0.1027143425236649 -0.1449002169553187 0.006340988491613493 0.05778066558517755 -0.1151229865456599 
-0.1144254745296934 -0.1580104770436217 -0.02549750407122214 -0.06257313299536181 -0.01454974036293945 
-0.01099472444223964 -0.01215325237037759 -0.01212719005676317 -0.01137482296883636 0.01419305831775429 
0 0 0 0 0 
0 0 0 0 0 
0 0 0 0 0 
0 0 0 0 0 
0 0 0 0 0 
-0.1082958039464197 -0.1658436854064375 -0.05105233596709494 -0.06760966976526947 0.01486853235342421 
-0.08828965452967198 -0.07137960417708589 -0.06671469308998512 -0.09956070671499517 -0.08699778696656266 
0 0 0 0 0 
0 0 0 0 0 
-0.1093983448349006 -0.1238317000632494 0.009767775795794175 -0.1148974285783861 0.01757189478468910 
-0.07407218909657194 -0.09528444475980773 0.1008295959022895 -0.09968867033126262 -0.1075745812568165 
-0.03286399719865669 -0.04220925306663583 0.04866139137223061 -0.04373301701139074 -0.04268947917181476 
0 0 0 0 0 
0 0 0 0 0 
-0.06897056487258062 0.06018970140666007 -0.1767077417117167 0.04463412999323348 -0.07318320400633010 
0 0 0 0 0 
-0.1862097643622688 -0.2327922153502234 -0.0008351649872511379 0.005272592102895482 -0.2125798356887614 
0 0 0 0 0 
0 0 0 0 0 
0 0 0 0 0 
0 0 0 0 0 
0 0 0 0 0 
0 0 0 0 0 
-0.04216765191953442 -0.05458972251183976 -0.05553026822565358 -0.01737216101955136 0.04687896918155278 
0 0 0 0 0 
-0.01779175279224169 -0.01760138198405699 -0.01844545447207768 -0.01810382854738587 0.01892131911232219 
0 0 0 0 0 
-0.02503425386961872 -0.02800173965448382 -0.02731644327962735 -0.01082072761651422 0.01689953060289617 
0 0 0 0 0 
0 0 0 0 0 
-0.1531068482476900 -0.09934435709679758 -0.01248608953555266 -0.1481564848314014 -0.09203176049960787 
0 0 0 0 0 
-0.1089900293267765 -0.1226480259840699 -0.07961314764763838 -0.1220841680613746 0.1112103250187231 
0 0 0 0 0 
0 0 0 0 0 
0 0 0 0 0 
0 0 0 0 0 
-0.1235658117414159 0.03365783655686876 -0.1140328767175571 -0.06732548483579481 -0.1106119624332099 
-0.04842446462012863 -0.06055540319592116 -0.05832044031277498 0.09641288191186168 -0.06799738884456301 
-0.05318843025270292 -0.06053318494986610 -0.05676968297521329 0.07414663867741354 -0.05969248876900252 
-0.2005759299059489 -0.2674531503068872 -0.05368970030446429 0.06117228297027354 -0.2658078583484930 
0 0 0 0 0 
0 0 0 0 0 
0 0 0 0 0 
0 0 0 0 0 
-0.1006956678995013 -0.04090912076028205 -0.1352267123043227 0.09977025376299800 -0.1528100311250346 
0 0 0 0 0 
0 0 0 0 0 
0 0 0 0 0 
0 0 0 0 0 
0 0 0 0 0 
0 0 0 0 0 
0 0 0 0 0 
0 0 0 0 0 
-0.05143506330751282 -0.05646992606123216 -0.06301510143390446 0.07050765012182472 -0.05352086412409099 
-0.07878219204666590 -0.08695117780449309 -0.06149650910100873 -0.09275999856618124 0.06958706010205779 
0.002621256845445980 -0.001208263587036466 -0.001866703836080897 -0.001240773358608599 -0.001103763999043173 
0 0 0 0 0 
0 0 0 0 0 
-0.08607977960862990 0.09622209186552264 -0.07266441523546198 -0.08963345511825076 -0.1021659514884246 
0 0 0 0 0 
0 0 0 0 0 
0 0 0 0 0 
0 0 0 0 0 
-0.8916665673569594 -0.9820102198462355 -0.9501418284829873 -0.9645311824274280 1.141534388631089 
-0.04180776008930087 -0.04908614927588593 -0.04834736985852756 -0.04979524441000414 0.06579615025326566 
-0.004759567376303865 -0.07184673885928977 0.02886843341239605 -0.07410211547511848 -0.06854905472133556 
-0.08972454182333123 -0.1594646232765360 -0.1491063365988424 -0.04252181791410284 0.02476685051402502 
-0.02752926878915341 0.03916956845164536 -0.05493542521539906 -0.03849909332570813 -0.05479420746920799 
-0.02453492988657253 -0.02622663562222071 -0.02764596377504377 0.02613409875541862 -0.01934932089132950 
-0.1099558585197479 0.1280138239241589 -0.1094426038331069 -0.1113747765393108 -0.1224721062666983 
-0.5170267989430783 -0.07467034283672926 -0.5109048866031488 -0.3122263446870828 -0.1176139887152636 
0 0 0 0 0 
0 0 0 0 0 
-0.01058977291653094 -0.01182676969050333 -0.01220243320014092 0.01602472010627395 -0.01161054805303566 
0 0 0 0 0 
-0.07878675614897342 -0.1130966109858600 -0.06260819424743631 0.03619187827945848 -0.07483425087613449 
-0.02428537096287819 -0.03466842206995351 0.04833247617863509 -0.02972483236859563 -0.03119084696991070 
0 0 0 0 0 
0 0 0 0 0 
-0.06200150962831719 -0.08986294205241452 -0.07874137675706337 -0.02532597741165457 0.06008758288055303 
0 0 0 0 0 
-0.01041742631807646 -0.01166323912200597 0.01375360189638261 -0.01125148005843845 -0.01126850499060710 
0 0 0 0 0 
-0.02349875814971009 -0.02747333311985402 -0.02985996383463952 -0.03097285112180239 0.04286017778481326 
-0.03721842187928192 -0.04481845610400918 -0.04702037190380332 0.05993539608018852 -0.03913349541888989 
-0.05403976307952877 -0.05992825985149643 0.06589336571250310 -0.06405761560896993 -0.06465649213215867 
0 0 0 0 0 
0 0 0 0 0 
-0.07924600375775728 -0.09468309472322820 -0.08716894721018731 0.05296764611894158 -0.02714991682477130 
-0.05093685972768469 -0.07154408643327127 -0.05617367178030897 0.09224692157790093 -0.06272200068586259 
0 0 0 0 0 
-0.1994741376027843 -0.2604446379650710 0.2503840311278404 -0.1338120176656311 -0.2323632216308094 
0 0 0 0 0 
0 0 0 0 0 
0 0 0 0 0 
-0.3311903789050344 -0.3539103206196168 -0.2894390928195001 -0.3175275463381851 0.3010108821077873 
-0.1066110012631353 -0.09465937604628070 -0.1228027308482501 -0.1047022493179905 0.1092499251287195 
0 0 0 0 0 
-0.1857214999913389 -0.2479957364415968 0.2432618256628163 -0.2426717102089544 -0.1632528140661202 
-0.06705269529794859 -0.07951738573969545 -0.02418291167508873 -0.07708321149888857 0.04866783725614975 
0 0 0 0 0 
-0.2447636021834108 -0.2689078259885446 -0.2180781397726816 -0.2646712334840872 0.2679805583485280 
0 0 0 0 0 
0 0 0 0 0 
-0.04375403898754431 -0.04847346324327280 0.05553996766828200 -0.04766616578953414 -0.04621687043931951 
-0.01174512812400265 -0.01284286312735166 0.01676179853008847 -0.01366751433232782 -0.01269233745388195 
-0.1156396369285914 -0.1349085328504332 0.1678576158951961 -0.1381268331864228 -0.1321040636665465 
-0.05090866454779077 -0.05293528000947938 0.05590144562712223 -0.05220369065370890 -0.05105072982240196 
0 0 0 0 0 
0 0 0 0 0 
0 0 0 0 0 
0 0 0 0 0 
0 0 0 0 0 
0 0 0 0 0 
-0.01751113185631880 -0.01801015426217462 0.02127500968282206 -0.01946270238909093 -0.01761427767533962 
0 0 0 0 0 
0 0 0 0 0 
0 0 0 0 0 
0 0 0 0 0 
-0.003170533055256855 -0.003601885803909102 0.004991835492033924 -0.003852119241428686 -0.003592180177043435 
0 0 0 0 0 
0 0 0 0 0 
-0.1245709525836650 -0.1440668756110175 0.1356501608130636 -0.1485951848696895 -0.08621949088412177 
-0.1174269729731397 -0.1366437524995934 0.2041319641981177 -0.1711609639960080 -0.1296486690467131 
-0.02331657742457789 -0.03444880676062948 0.04455247870879987 -0.02803362886283253 -0.02424313930004633 
-0.2042044659678301 -0.2373046954573744 -0.1694401692507981 0.05286416083224713 -0.04330562578281526 
0 0 0 0 0 
-0.03818465312930858 -0.04628079891608129 0.05731043823815682 -0.04759985967902183 -0.03548669035581597 
-0.05704321178693572 -0.07224911572276149 -0.01470497874184478 -0.04653592852625925 0.02495400926536407 
-0.1678097385489361 0.01147409570893733 -0.03338057451477466 -0.1923529397159873 -0.1134758197844111 
-0.04812502049608548 -0.06183609766604834 0.07639604679460806 -0.05639478848214113 -0.05096851197617252 
-0.03381383289951592 0.05294817673917829 -0.03310136803341779 -0.04157530209618483 -0.04400595472983974 
-0.05934903558416746 -0.06380691601632672 0.08064088798935275 -0.06794218359940976 -0.06433343847406968 
-0.1146452906657873 -0.09160414346971751 -0.1361820045811826 0.1456935002117722 -0.1422218288448549 
0 0 0 0 0 
-0.1468060528958715 -0.1223877961786120 0.01087790679674898 -0.05942511303314418 -0.1515142580849639 
0 0 0 0 0 
0 0 0 0 0 
-0.06644858084941137 -0.08046044532112429 0.05863946200329113 -0.08028045477932343 -0.02577058228361166 
-0.03523613338730891 -0.03770601097704423 -0.03581741355223041 -0.03759779130285806 0.04057939481555725 
0 0 0 0 0 
0 0 0 0 0 
0 0 0 0 0 
0 0 0 0 0 
-0.03710074741894977 -0.07792816435142076 0.09286527447885022 -0.04466927823400527 -0.03817243389173282 
0 0 0 0 0 
0 0 0 0 0 
-0.1128912925686384 -0.1662469987217347 0.2074816074236498 -0.1368156291528923 -0.1157345060663563 
0 0 0 0 0 
0 0 0 0 0 
0 0 0 0 0 
0 0 0 0 0 
0 0 0 0 0 
-0.03638532434818951 -0.06272869941005282 -0.08419260991764115 0.07804165467052956 -0.05384214968188130 
0 0 0 0 0 
-0.04911939760830119 -0.06751375027685134 0.08970146943710772 -0.06063851998105417 -0.05298500228477088 
0.01227258527825015 -0.007562211139023796 -0.007035816176618474 -0.008060576448844900 -0.008332274411637470 
-0.006553864960165667 -0.007734543438150885 0.01012084675172512 -0.007886595306986212 -0.006941673947361538 
0 0 0 0 0 
0 0 0 0 0 
-0.08586916772195098 -0.09292876492195970 -0.09431271987653757 -0.09203786094042800 0.1095594674825473 
0 0 0 0 0 
0 0 0 0 0 
-0.009828193952430264 -0.01104423372990032 0.01469469231186550 -0.01135498416178005 -0.01123223975925810 
-0.01976440558147780 -0.02066714749355818 0.02564484721945595 -0.02134491546496007 -0.02087503504711633 
0 0 0 0 0 
0 0 0 0 0 
-0.01316669458190444 -0.02488137063776299 -0.02550883116024733 -0.02461946056621978 0.02178226040333351 
-0.04360516153540531 -0.04808831184018689 0.05673405660467318 -0.04810488568237955 -0.04668359197113980 
0 0 0 0 0 
0 0 0 0 0 
0 0 0 0 0 
0 0 0 0 0 
0 0 0 0 0 
0 0 0 0 0 
0 0 0 0 0 
0 0 0 0 0 
0 0 0 0 0 
-0.1595057887892388 0.002822198714587877 -0.1903733257723279 -0.01415416171023206 -0.1357140648584904 
0 0 0 0 0 
-0.03033712788076778 -0.03705652955317221 -0.03004431143729700 -0.03281723075703631 0.04126360448452853 
0 0 0 0 0 
0 0 0 0 0 
-0.08486287045403303 -0.09703142794169449 -0.09705013727728516 -0.1140430387272466 0.05068416749199871 
-0.06400591591130043 -0.06893517534475957 -0.07124760357808625 -0.07150914102835981 0.08163093672777266 
0 0 0 0 0 
-0.8818394005639765 -1.056740005980208 1.357946723233471 -1.104671254621240 -1.006391468552504 
0 0 0 0 0 
0 0 0 0 0 
0 0 0 0 0 
0 0 0 0 0 
0 0 0 0 0 
0.004636060626868822 -0.002136983734528311 -0.003301527727629920 -0.002194481828328585 -0.001952161546553331 
0 0 0 0 0 
-0.1801003763102015 -0.1942643203163099 -0.1893626879103155 -0.1861613152473817 0.2139134915827634 
0 0 0 0 0 
0 0 0 0 0 
-0.009326343245819917 -0.01203743054223971 -0.005023524171560681 0.009791005083790428 -0.01080405032763533 
0 0 0 0 0 
-0.06106920386255681 0.06062486079683312 -0.06547844027375758 -0.07490198536629257 -0.07550030113583892 
0 0 0 0 0 
0 0 0 0 0 
0 0 0 0 0 
0 0 0 0 0 
0 0 0 0 0 
0 0 0 0 0 
-0.005662049889923857 -0.01201053066541921 0.01023358391789992 -0.01302446523050399 -0.01286210738225534 
0 0 0 0 0 
0 0 0 0 0 
0 0 0 0 0 
0 0 0 0 0 
0 0 0 0 0 
-0.007692499948250040 -0.006986511796139962 0.007290598918083305 -0.007652788074879832 -0.007970978384843784 
0 0 0 0 0 
0 0 0 0 0 
0 0 0 0 0 
-0.1029297102723202 -0.1074233516588141 0.06757209069529042 -0.1186934503049627 -0.04147803454706171 
0 0 0 0 0 
-0.08662094388018260 -0.1144529485044879 0.01459162990022144 -0.1133806798697130 -0.02403631133796694 
0 0 0 0 0 
0 0 0 0 0 
0 0 0 0 0 
0 0 0 0 0 
-0.03042891054621309 -0.04159494186051026 0.02327662426989921 -0.01705419404177812 -0.04181146308255693 
0 0 0 0 0 
0 0 0 0 0 
-0.007635712430720709 -0.01325331295840952 0.01202843458721816 -0.01332952594031733 -0.01306919317379336 
0 0 0 0 0 
0 0 0 0 0 
-0.02469946767136832 -0.04240527858226238 0.05845463958362993 -0.03464570200942407 -0.02624355938797222 
0 0 0 0 0 
-0.06961717812993079 -0.08052011716264710 -0.08587654600192475 0.1124100766116665 -0.08055332116408799 
-0.1683809693294895 -0.2180844992822137 -0.1765080502418568 -0.04793675183338131 0.02814088015209530 
-0.06895733954098250 -0.07211171787174381 -0.06785795043873966 0.07680789614557951 -0.07356618992431870 
-0.007729968478626540 -0.008992198946763712 0.01172780126877248 -0.008989821393736556 -0.008538086574980869 
0 0 0 0 0 
-0.02230948938976100 -0.02461781152456614 0.03049642908974838 -0.02518886542663810 -0.02421022239562547 
-0.03164992660187593 0.02874697896096278 -0.03793228953483441 -0.01695380421674322 -0.03384393901388883 
0 0 0 0 0 
0 0 0 0 0 
0 0 0 0 0 
0 0 0 0 0 
-0.03691122861523435 -0.008286508684931850 -0.04849701720319714 -0.05054897334911668 0.01754013629204095 
0 0 0 0 0 
0 0 0 0 0 
0 0 0 0 0 
-0.03379929702397684 0.02190414962853769 -0.001122235225842420 -0.04513999230345275 -0.04063798700107808 
0 0 0 0 0 
-0.04275882573065149 -0.08906666151745879 0.05179963596622693 -0.06411175695535938 -0.08616841473572498 
0 0 0 0 0 
-0.007916032650499278 -0.009147925153211143 0.01214032020259503 -0.009436369099302665 -0.008752738299644198 
-0.007309534706731909 -0.008626347055594558 0.01128779446065664 -0.008795930716416154 -0.007742058609607552 
-0.01201000294249808 -0.01352750582970263 0.01668914268431787 -0.01385050398904300 -0.01256280373810875 
-0.1470698504998902 -0.08767086429149559 -0.1069339034088785 0.04332160279923179 -0.1345012121619468 
-0.04607413054000166 0.08178704721504068 -0.1010318653069261 -0.06648050678251358 -0.08407254239271647 
0 0 0 0 0 
0 0 0 0 0 
0 0 0 0 0 
0 0 0 0 0 
0 0 0 0 0 
0 0 0 0 0 
0 0 0 0 0 
0 0 0 0 0 
0 0 0 0 0 
0 0 0 0 0 
0 0 0 0 0 
0 0 0 0 0 
0 0 0 0 0 
0 0 0 0 0 
0 0 0 0 0 
0 0 0 0 0 
0 0 0 0 0 
0 0 0 0 0 
0 0 0 0 0 
0 0 0 0 0 
0 0 0 0 0 
0 0 0 0 0 
0 0 0 0 0 
-0.03024715942626865 -0.03414035510584040 0.03730793120819783 -0.03135736121940266 -0.02975486672285525 
0 0 0 0 0 
-0.01217500472947412 -0.01680590107569051 0.01850940496786556 -0.01530541764400198 -0.01398559939361078 
0 0 0 0 0 
0 0 0 0 0 
0 0 0 0 0 
-0.1517626416677848 0.1493761098940809 -0.2396639210968266 -0.06484228520488869 -0.1204313656407552 
0 0 0 0 0 
0 0 0 0 0 
0 0 0 0 0 
-0.003327932959972208 -0.004357658840495516 0.005565481741548210 -0.004202700696417658 -0.003062624400809674 
0 0 0 0 0 
-0.02535115991700657 -0.02822063910946400 -0.01449198641600569 -0.03067182746866091 0.02366651914314844 
0 0 0 0 0 
-0.04121609142330764 -0.04631766024029799 -0.04674831820131300 0.01073318750153899 0.002712371972089629 
0 0 0 0 0 
0 0 0 0 0 
-0.008941105946351283 -0.01061620554262207 0.01311316085388205 -0.009987793222264521 -0.009651216534862370 
-0.01385941978987642 -0.01661484805086607 -0.01545289298240242 0.02921505060982939 -0.02378215860741583 
-0.1721732557996282 -0.07380687249004532 -0.2266032448609664 -0.1304055744295074 0.04275679415579566 
0 0 0 0 0 
0.01854136832233774 -0.008546610087688861 -0.01320406408613801 -0.008776566816210602 -0.007807435918670513 
-0.01512894881264443 -0.01674095487647405 0.01831891180962690 -0.01576198384565233 -0.01540011960634600 
0 0 0 0 0 
0 0 0 0 0 
-0.08609065958252012 0.02853082017905551 0.07045290217187024 -0.1412383695907328 -0.1170934582311854 
0 0 0 0 0 
0 0 0 0 0 
0 0 0 0 0 
-0.02974526804001127 -0.02360550538241058 -0.06029421518269617 -0.06885096967677638 0.02722599243433856 
0 0 0 0 0 
-0.3848478995644218 -0.5068337812556669 0.5277174705970912 -0.3908228427108841 -0.4216134991738949 
0 0 0 0 0 
-0.003757114340891563 -0.004003471419482730 -0.003932358073220316 -0.004091054905640652 0.004610075762817039 
0 0 0 0 0 
0 0 0 0 0 
0 0 0 0 0 
-0.03423219684861607 0.03418511877174192 -0.03258237506526632 -0.03473353695274493 -0.03655437796615722 
-0.05436209142865981 -0.06030137289745073 -0.02711997831243308 -0.05881452610912615 0.03858950549458891 
0 0 0 0 0 
0 0 0 0 0 
0 0 0 0 0 
0 0 0 0 0 
-0.07891669427525295 -0.08949122646290744 -0.07846747288646447 -0.09033145852692430 0.1039553324838631 
-0.04823342082153666 -0.04769843885096000 -0.04997190859027464 -0.05016502975057094 0.05228904194084210 
0 0 0 0 0 
-0.09236462937816874 -0.1134079371242314 0.1634803745079655 -0.1185332923800679 -0.1069294658679859 
-0.02107443368683235 -0.02277410484809211 -0.02254262421190127 -0.02537154259890706 0.02908654981204083 
0 0 0 0 0 
0 0 0 0 0 
-0.1254179817300704 -0.03066198271998634 -0.06418933313294058 -0.1310428204736834 -0.01697548519280431 
0 0 0 0 0 
0 0 0 0 0 
0 0 0 0 0 
0 0 0 0 0 
0 0 0 0 0 
0 0 0 0 0 
0 0 0 0 0 
0 0 0 0 0 
-0.007309534706731909 -0.008626347055594558 0.01128779446065664 -0.008795930716416154 -0.007742058609607552 
-0.03901531584031458 -0.09133516983024041 -0.06755346980526888 0.1070329401441877 -0.07797725683729109 
-0.06785474406643790 -0.08795248864984569 0.1153348655347848 -0.08213523895498102 -0.07166466683467121 
-0.03354099726945600 -0.04848448534962596 0.07087778133017233 -0.04675880021156150 -0.03627193040390143 
0 0 0 0 0 
0 0 0 0 0 
0 0 0 0 0 
0 0 0 0 0 
-0.06649236076986613 -0.06797397305676711 -0.07306545381759953 -0.07120216609972850 0.08117736485293821 
-0.1230775882737019 -0.02143952741926403 -0.04122936581224199 -0.1351232655946182 -0.03919956491778001 
0 0 0 0 0 
0 0 0 0 0 
0 0 0 0 0 
0 0 0 0 0 
0 0 0 0 0 
-0.05025680367760869 -0.06525704625567250 0.01619280291190353 -0.03389087770489805 -0.01989385250485048 
0 0 0 0 0 
0 0 0 0 0 
-0.01249564433662154 -0.01488888846136769 0.01935656485921819 -0.01355455474171484 -0.01512603154017452 
0 0 0 0 0 
0 0 0 0 0 
0 0 0 0 0 
-0.1173821372744426 -0.1210899232255669 0.1314840371320144 -0.1230699971400705 -0.1202907176512165 
-0.03804032473228092 -0.04120269643775142 -0.03094018768453294 -0.03881921380037090 0.03548359429880484 
0 0 0 0 0 
-0.3160646652033277 -0.1913838953404907 -0.09615803632540258 -0.08069815664844693 -0.2260986338702681 
0 0 0 0 0 
0 0 0 0 0 
0 0 0 0 0 
0 0 0 0 0 
0 0 0 0 0 
0 0 0 0 0 
0 0 0 0 0 
0 0 0 0 0 
0 0 0 0 0 
-0.06946320382602171 -0.09264722131980231 -0.01857597070464056 0.05281813755418622 -0.08327915017145230 
0 0 0 0 0 
-0.06257930702014383 -0.004967484301795689 -0.06427586124621402 -0.02557034798883554 -0.02749491703380013 
-0.03682740810126419 0.04855838954665386 -0.03720703293089309 -0.04485066818816662 -0.03666929862874061 
0 0 0 0 0 
-0.04245265693376734 -0.04817572900568811 0.01158771524723226 -0.04736912060282041 -0.002575412265223496 
0 0 0 0 0 
0 0 0 0 0 
0 0 0 0 0 
-0.02899782051991275 -0.04189050589941572 -0.04477992259338952 -0.04315836137576491 0.04197806615051836 
0 0 0 0 0 
-0.005349735571072531 -0.01158932069022617 0.01092829962608237 -0.01072020052373345 -0.01162492829355744 
-0.06555282783766776 -0.06630503538688650 -0.02658743299429726 -0.07819241305400490 -0.01416100356430366 
0 0 0 0 0 
0 0 0 0 0 
0 0 0 0 0 
0 0 0 0 0 
0 0 0 0 0 
0 0 0 0 0 
0 0 0 0 0 
0 0 0 0 0 
0 0 0 0 0 
-0.1988745835117740 0.1056339140877457 -0.2153052707047099 -0.2292234336354931 -0.06735409936289550 
0 0 0 0 0 
0 0 0 0 0 
0 0 0 0 0 
0 0 0 0 0 
-0.04954528342266900 0.04416784359012745 -0.06395004272633847 -0.02619432825392629 -0.06576144997863365 
0 0 0 0 0 
0 0 0 0 0 
0 0 0 0 0 
0 0 0 0 0 
-0.02555995642767888 -0.06895411092868128 0.04008069010995206 -0.04918950218613521 -0.07690996208929252 
-0.01398485426568124 -0.04273223898137372 -0.04457397086347130 -0.01002528779657916 0.02084136005766282 
0 0 0 0 0 
0 0 0 0 0 
0 0 0 0 0 
0 0 0 0 0 
0 0 0 0 0 
0 0 0 0 0 
0 0 0 0 0 
0 0 0 0 0 
-0.04023566871816396 -0.04534643086086845 0.05511617879952804 -0.04286420971574443 -0.04580464326744277 
-0.06305486321185366 0.1017962112256658 -0.06869971812840643 -0.07307733686614584 -0.08374464770001674 
0 0 0 0 0 
0 0 0 0 0 
0 0 0 0 0 
0 0 0 0 0 
0 0 0 0 0 
0 0 0 0 0 
-0.02753050916156433 0.01461838002393132 -0.04802681940047159 0.02525593678847033 -0.03970537025573364 
-0.003373185233669320 -0.004174985843277137 0.005920806105847527 -0.004216529119124250 -0.003966769704152930 
0 0 0 0 0 
0 0 0 0 0 
0 0 0 0 0 
-0.007230719692463490 -0.009549743782990264 -0.01329300923915709 0.01701358391582179 -0.008304577091051113 
0 0 0 0 0 
0 0 0 0 0 
-0.1047894662047954 -0.007684228761969667 -0.1142127077936484 -0.09900505661482002 0.01161843606562715 
-0.03175203939984557 -0.03546101131210824 -0.03658738887025934 0.04804801275687688 -0.03481269920890390 
0 0 0 0 0 
-0.1505466306444425 -0.1744866246679060 -0.1284985158672430 -0.1198051161272817 0.1099833804090524 
0.003552492830012315 -0.001637515124536263 -0.002529874935741215 -0.001681574420219548 -0.001495890682913773 
-0.008830700631229026 0.03037461548083339 -0.03153564361503265 -0.06028731869253631 -0.05574840331321399 
0 0 0 0 0 
0 0 0 0 0 
-0.003748752179092468 -0.004461687873117104 -0.005224805160582941 0.006386688136673987 -0.003983806809377669 
0 0 0 0 0 
0 0 0 0 0 
0.007633835725333905 -0.003518802727158831 -0.005436365557709278 -0.003613480307526796 -0.003214470593704677 
-0.02421273779838378 -0.02611388996189003 -0.02695471609505858 -0.03190757536586206 0.03331946783283263 
0 0 0 0 0 
0 0 0 0 0 
0 0 0 0 0 
0 0 0 0 0 
-0.03688799298788292 -0.04422958953362483 -0.04088592897513213 0.05892982646083314 -0.04465740690928478 
0 0 0 0 0 
0 0 0 0 0 
0.009272121253737643 -0.004273967469056623 -0.006603055455259839 -0.004388963656657170 -0.003904323093106662 
-0.1513267599033015 -0.2008216650532905 -0.1493648299954185 0.1344027291984931 -0.1170430028477305 
-0.02325579012210514 -0.03121410151492791 0.03818833311709261 -0.02780659365448498 -0.02554825777817167 
-0.05186055888817556 -0.08795797928154456 -0.02032351984166849 -0.02254970911120572 -0.04874687510385603 
-0.1129594253669235 -0.1293832384775179 0.1448919050140146 -0.1136241782288325 -0.1187421696683331 
0 0 0 0 0 
0 0 0 0 0 
-0.05908084989546918 -0.06183299099905135 0.04998295259021809 -0.07632932847072900 -0.09292439720198771 
0 0 0 0 0 
0 0 0 0 0 
0 0 0 0 0 
-0.3760858300738438 -0.3978900255752468 -0.3187153324482384 0.3624596258439907 -0.3789570647386132 
-0.01604694552695260 -0.02256663595831772 0.02862245482207052 -0.01715745647354587 -0.02019956887096703 
0 0 0 0 0 
-0.01901258567979130 -0.01910441640447696 0.02184033547470132 -0.02003810277910918 -0.01984311596342145 
0 0 0 0 0 
0 0 0 0 0 
-0.03023774881705967 -0.03656857907982770 -0.01372252771289303 -0.03472973693899720 0.02719767678872517 
-0.03324268306860961 -0.04182584402455091 -0.03708565113200028 -0.03702331082593558 0.05044296651218486 
0 0 0 0 0 
-0.1447654248235302 -0.2304143248130173 -0.1520331543721090 0.04549326814258604 -0.06352682944576568 
0 0 0 0 0 
-0.1070143586168965 -0.1311376667304982 -0.02462329920629856 -0.003385657452298668 -0.04498918394894255 
-0.03558133361674763 -0.03804748196878161 -0.03690070343693134 -0.03919550167575737 0.04370655846964377 
0 0 0 0 0 
0 0 0 0 0 
0 0 0 0 0 
-0.08889986369984118 -0.01034405564088393 -0.04147275218745724 -0.01896021434697102 -0.09470413389095028 
0 0 0 0 0 
-0.02848568043451279 -0.02998670063332846 -0.02215390233454757 -0.03205404095716516 0.02732898172457596 
0 0 0 0 0 
-0.007882271641366230 -0.008143445093668350 -0.008780584745712855 -0.008088504720254600 0.009277422519879964 
-0.08603821115273308 -0.1234755541229587 -0.1144412679982215 0.09963996827197930 -0.07658294306769822 
0.03060688593693274 -0.01951815137053371 -0.01908581386135964 -0.02113775253357346 -0.02094016539025739 
-0.01921183727016554 -0.01899920909950634 -0.01971485728533185 -0.01970648674113204 0.02020307235500094 
0 0 0 0 0 
0 0 0 0 0 
0 0 0 0 0 
0 0 0 0 0 
0 0 0 0 0 
0 0 0 0 0 
-0.1644912410721147 -0.1817321565626667 -0.06890934163202102 -0.1137298830524490 0.04145132302127539 
0 0 0 0 0 
0 0 0 0 0 
0 0 0 0 0 
-0.05274700912366251 -0.09220915215536254 -0.05907685263148951 0.05071572121416218 -0.08584931227407837 
0 0 0 0 0 
-0.009818121598821760 -0.01009479695176271 0.01319329197379134 -0.01105718641849957 -0.01111206051535137 
0.004636060626868822 -0.002136983734528311 -0.003301527727629920 -0.002194481828328585 -0.001952161546553331 
0 0 0 0 0 
0 0 0 0 0 
0.003482911970960578 -0.002606492419396290 -0.002747168654478309 -0.002537024803543175 -0.002286355413944302 
-0.009241646084695437 -0.01000474015363475 0.01358753535547202 -0.01101368308967603 -0.01026124695601736 
0.01912274171517154 -0.03814232379325670 -0.004890484307883426 -0.03990339024227997 -0.03771999264356378 
0 0 0 0 0 
-0.1631594295329978 -0.1641237726235207 -0.07627624407362509 0.02464404616117302 -0.1074813116242657 
-0.05992821847044688 -0.07116749052754631 -0.06409877746524690 0.07899930448431192 -0.07294584648634504 
0 0 0 0 0 
0 0 0 0 0 
0 0 0 0 0 
0 0 0 0 0 
0 0 0 0 0 
0 0 0 0 0 
0 0 0 0 0 
0 0 0 0 0 
0 0 0 0 0 
-0.01921183727016554 -0.01899920909950634 -0.01971485728533185 -0.01970648674113204 0.02020307235500094 
